digraph Tree {
node [shape=box] ;
0 [label="pass <= 1.5\ngini = 0.695\nsamples = 1000\nvalue = [439, 286, 109, 131, 35]"] ;
1 [label="row <= 0.5\ngini = 0.703\nsamples = 515\nvalue = [174, 201, 76, 45, 19]"] ;
0 -> 1 [labeldistance=2.5, labelangle=45, headlabel="True"] ;
2 [label="col <= 1.5\ngini = 0.799\nsamples = 101\nvalue = [20, 21, 22, 19, 19]"] ;
1 -> 2 ;
3 [label="col <= 0.5\ngini = 0.666\nsamples = 40\nvalue = [6, 0, 4, 19, 11]"] ;
2 -> 3 ;
4 [label="pass <= 0.5\ngini = 0.625\nsamples = 20\nvalue = [3, 0, 4, 2, 11]"] ;
3 -> 4 ;
5 [label="gini = 0.0\nsamples = 11\nvalue = [0, 0, 0, 0, 11]"] ;
4 -> 5 ;
6 [label="dest <= 1.0\ngini = 0.642\nsamples = 9\nvalue = [3, 0, 4, 2, 0]"] ;
4 -> 6 ;
7 [label="gini = 0.0\nsamples = 4\nvalue = [0, 0, 4, 0, 0]"] ;
6 -> 7 ;
8 [label="dest <= 2.5\ngini = 0.48\nsamples = 5\nvalue = [3, 0, 0, 2, 0]"] ;
6 -> 8 ;
9 [label="gini = 0.0\nsamples = 3\nvalue = [3, 0, 0, 0, 0]"] ;
8 -> 9 ;
10 [label="gini = 0.0\nsamples = 2\nvalue = [0, 0, 0, 2, 0]"] ;
8 -> 10 ;
11 [label="pass <= 0.5\ngini = 0.255\nsamples = 20\nvalue = [3, 0, 0, 17, 0]"] ;
3 -> 11 ;
12 [label="gini = 0.0\nsamples = 14\nvalue = [0, 0, 0, 14, 0]"] ;
11 -> 12 ;
13 [label="dest <= 1.0\ngini = 0.5\nsamples = 6\nvalue = [3, 0, 0, 3, 0]"] ;
11 -> 13 ;
14 [label="gini = 0.0\nsamples = 3\nvalue = [0, 0, 0, 3, 0]"] ;
13 -> 14 ;
15 [label="gini = 0.0\nsamples = 3\nvalue = [3, 0, 0, 0, 0]"] ;
13 -> 15 ;
16 [label="pass <= 0.5\ngini = 0.725\nsamples = 61\nvalue = [14, 21, 18, 0, 8]"] ;
2 -> 16 ;
17 [label="col <= 2.5\ngini = 0.48\nsamples = 30\nvalue = [12, 18, 0, 0, 0]"] ;
16 -> 17 ;
18 [label="dest <= 1.5\ngini = 0.408\nsamples = 7\nvalue = [5, 2, 0, 0, 0]"] ;
17 -> 18 ;
19 [label="gini = 0.0\nsamples = 3\nvalue = [3, 0, 0, 0, 0]"] ;
18 -> 19 ;
20 [label="dest <= 2.5\ngini = 0.5\nsamples = 4\nvalue = [2, 2, 0, 0, 0]"] ;
18 -> 20 ;
21 [label="gini = 0.0\nsamples = 2\nvalue = [0, 2, 0, 0, 0]"] ;
20 -> 21 ;
22 [label="gini = 0.0\nsamples = 2\nvalue = [2, 0, 0, 0, 0]"] ;
20 -> 22 ;
23 [label="dest <= 2.5\ngini = 0.423\nsamples = 23\nvalue = [7, 16, 0, 0, 0]"] ;
17 -> 23 ;
24 [label="col <= 3.5\ngini = 0.337\nsamples = 14\nvalue = [3, 11, 0, 0, 0]"] ;
23 -> 24 ;
25 [label="gini = 0.0\nsamples = 11\nvalue = [0, 11, 0, 0, 0]"] ;
24 -> 25 ;
26 [label="gini = 0.0\nsamples = 3\nvalue = [3, 0, 0, 0, 0]"] ;
24 -> 26 ;
27 [label="col <= 3.5\ngini = 0.494\nsamples = 9\nvalue = [4, 5, 0, 0, 0]"] ;
23 -> 27 ;
28 [label="gini = 0.0\nsamples = 4\nvalue = [4, 0, 0, 0, 0]"] ;
27 -> 28 ;
29 [label="gini = 0.0\nsamples = 5\nvalue = [0, 5, 0, 0, 0]"] ;
27 -> 29 ;
30 [label="col <= 3.5\ngini = 0.583\nsamples = 31\nvalue = [2, 3, 18, 0, 8]"] ;
16 -> 30 ;
31 [label="col <= 2.5\ngini = 0.363\nsamples = 23\nvalue = [2, 3, 18, 0, 0]"] ;
30 -> 31 ;
32 [label="dest <= 1.0\ngini = 0.642\nsamples = 9\nvalue = [2, 3, 4, 0, 0]"] ;
31 -> 32 ;
33 [label="gini = 0.0\nsamples = 3\nvalue = [0, 3, 0, 0, 0]"] ;
32 -> 33 ;
34 [label="dest <= 2.5\ngini = 0.444\nsamples = 6\nvalue = [2, 0, 4, 0, 0]"] ;
32 -> 34 ;
35 [label="gini = 0.0\nsamples = 4\nvalue = [0, 0, 4, 0, 0]"] ;
34 -> 35 ;
36 [label="gini = 0.0\nsamples = 2\nvalue = [2, 0, 0, 0, 0]"] ;
34 -> 36 ;
37 [label="gini = 0.0\nsamples = 14\nvalue = [0, 0, 14, 0, 0]"] ;
31 -> 37 ;
38 [label="gini = 0.0\nsamples = 8\nvalue = [0, 0, 0, 0, 8]"] ;
30 -> 38 ;
39 [label="dest <= 0.5\ngini = 0.652\nsamples = 414\nvalue = [154, 180, 54, 26, 0]"] ;
1 -> 39 ;
40 [label="col <= 3.5\ngini = 0.486\nsamples = 72\nvalue = [47, 21, 4, 0, 0]"] ;
39 -> 40 ;
41 [label="col <= 2.5\ngini = 0.291\nsamples = 54\nvalue = [45, 5, 4, 0, 0]"] ;
40 -> 41 ;
42 [label="row <= 1.5\ngini = 0.138\nsamples = 41\nvalue = [38, 2, 1, 0, 0]"] ;
41 -> 42 ;
43 [label="col <= 1.5\ngini = 0.298\nsamples = 11\nvalue = [9, 2, 0, 0, 0]"] ;
42 -> 43 ;
44 [label="gini = 0.0\nsamples = 9\nvalue = [9, 0, 0, 0, 0]"] ;
43 -> 44 ;
45 [label="gini = 0.0\nsamples = 2\nvalue = [0, 2, 0, 0, 0]"] ;
43 -> 45 ;
46 [label="col <= 0.5\ngini = 0.064\nsamples = 30\nvalue = [29, 0, 1, 0, 0]"] ;
42 -> 46 ;
47 [label="row <= 2.5\ngini = 0.198\nsamples = 9\nvalue = [8, 0, 1, 0, 0]"] ;
46 -> 47 ;
48 [label="gini = 0.0\nsamples = 1\nvalue = [0, 0, 1, 0, 0]"] ;
47 -> 48 ;
49 [label="gini = 0.0\nsamples = 8\nvalue = [8, 0, 0, 0, 0]"] ;
47 -> 49 ;
50 [label="gini = 0.0\nsamples = 21\nvalue = [21, 0, 0, 0, 0]"] ;
46 -> 50 ;
51 [label="row <= 1.5\ngini = 0.604\nsamples = 13\nvalue = [7, 3, 3, 0, 0]"] ;
41 -> 51 ;
52 [label="gini = 0.0\nsamples = 3\nvalue = [0, 0, 3, 0, 0]"] ;
51 -> 52 ;
53 [label="row <= 3.5\ngini = 0.42\nsamples = 10\nvalue = [7, 3, 0, 0, 0]"] ;
51 -> 53 ;
54 [label="gini = 0.0\nsamples = 7\nvalue = [7, 0, 0, 0, 0]"] ;
53 -> 54 ;
55 [label="gini = 0.0\nsamples = 3\nvalue = [0, 3, 0, 0, 0]"] ;
53 -> 55 ;
56 [label="row <= 3.5\ngini = 0.198\nsamples = 18\nvalue = [2, 16, 0, 0, 0]"] ;
40 -> 56 ;
57 [label="gini = 0.0\nsamples = 16\nvalue = [0, 16, 0, 0, 0]"] ;
56 -> 57 ;
58 [label="gini = 0.0\nsamples = 2\nvalue = [2, 0, 0, 0, 0]"] ;
56 -> 58 ;
59 [label="col <= 1.5\ngini = 0.659\nsamples = 342\nvalue = [107, 159, 50, 26, 0]"] ;
39 -> 59 ;
60 [label="row <= 2.5\ngini = 0.474\nsamples = 123\nvalue = [29, 84, 8, 2, 0]"] ;
59 -> 60 ;
61 [label="pass <= 0.5\ngini = 0.268\nsamples = 67\nvalue = [5, 57, 3, 2, 0]"] ;
60 -> 61 ;
62 [label="dest <= 2.5\ngini = 0.089\nsamples = 43\nvalue = [0, 41, 0, 2, 0]"] ;
61 -> 62 ;
63 [label="gini = 0.0\nsamples = 35\nvalue = [0, 35, 0, 0, 0]"] ;
62 -> 63 ;
64 [label="row <= 1.5\ngini = 0.375\nsamples = 8\nvalue = [0, 6, 0, 2, 0]"] ;
62 -> 64 ;
65 [label="col <= 0.5\ngini = 0.444\nsamples = 3\nvalue = [0, 1, 0, 2, 0]"] ;
64 -> 65 ;
66 [label="gini = 0.0\nsamples = 1\nvalue = [0, 1, 0, 0, 0]"] ;
65 -> 66 ;
67 [label="gini = 0.0\nsamples = 2\nvalue = [0, 0, 0, 2, 0]"] ;
65 -> 67 ;
68 [label="gini = 0.0\nsamples = 5\nvalue = [0, 5, 0, 0, 0]"] ;
64 -> 68 ;
69 [label="dest <= 2.5\ngini = 0.497\nsamples = 24\nvalue = [5, 16, 3, 0, 0]"] ;
61 -> 69 ;
70 [label="row <= 1.5\ngini = 0.496\nsamples = 11\nvalue = [5, 6, 0, 0, 0]"] ;
69 -> 70 ;
71 [label="col <= 0.5\ngini = 0.375\nsamples = 4\nvalue = [3, 1, 0, 0, 0]"] ;
70 -> 71 ;
72 [label="gini = 0.0\nsamples = 1\nvalue = [0, 1, 0, 0, 0]"] ;
71 -> 72 ;
73 [label="gini = 0.0\nsamples = 3\nvalue = [3, 0, 0, 0, 0]"] ;
71 -> 73 ;
74 [label="col <= 0.5\ngini = 0.408\nsamples = 7\nvalue = [2, 5, 0, 0, 0]"] ;
70 -> 74 ;
75 [label="gini = 0.0\nsamples = 2\nvalue = [2, 0, 0, 0, 0]"] ;
74 -> 75 ;
76 [label="gini = 0.0\nsamples = 5\nvalue = [0, 5, 0, 0, 0]"] ;
74 -> 76 ;
77 [label="row <= 1.5\ngini = 0.355\nsamples = 13\nvalue = [0, 10, 3, 0, 0]"] ;
69 -> 77 ;
78 [label="gini = 0.0\nsamples = 6\nvalue = [0, 6, 0, 0, 0]"] ;
77 -> 78 ;
79 [label="col <= 0.5\ngini = 0.49\nsamples = 7\nvalue = [0, 4, 3, 0, 0]"] ;
77 -> 79 ;
80 [label="gini = 0.0\nsamples = 4\nvalue = [0, 4, 0, 0, 0]"] ;
79 -> 80 ;
81 [label="gini = 0.0\nsamples = 3\nvalue = [0, 0, 3, 0, 0]"] ;
79 -> 81 ;
82 [label="dest <= 2.5\ngini = 0.576\nsamples = 56\nvalue = [24, 27, 5, 0, 0]"] ;
60 -> 82 ;
83 [label="row <= 3.5\ngini = 0.606\nsamples = 37\nvalue = [17, 15, 5, 0, 0]"] ;
82 -> 83 ;
84 [label="pass <= 0.5\ngini = 0.495\nsamples = 20\nvalue = [9, 11, 0, 0, 0]"] ;
83 -> 84 ;
85 [label="col <= 0.5\ngini = 0.426\nsamples = 13\nvalue = [9, 4, 0, 0, 0]"] ;
84 -> 85 ;
86 [label="gini = 0.0\nsamples = 7\nvalue = [7, 0, 0, 0, 0]"] ;
85 -> 86 ;
87 [label="dest <= 1.5\ngini = 0.444\nsamples = 6\nvalue = [2, 4, 0, 0, 0]"] ;
85 -> 87 ;
88 [label="gini = 0.0\nsamples = 2\nvalue = [2, 0, 0, 0, 0]"] ;
87 -> 88 ;
89 [label="gini = 0.0\nsamples = 4\nvalue = [0, 4, 0, 0, 0]"] ;
87 -> 89 ;
90 [label="gini = 0.0\nsamples = 7\nvalue = [0, 7, 0, 0, 0]"] ;
84 -> 90 ;
91 [label="pass <= 0.5\ngini = 0.637\nsamples = 17\nvalue = [8, 4, 5, 0, 0]"] ;
83 -> 91 ;
92 [label="dest <= 1.5\ngini = 0.494\nsamples = 9\nvalue = [0, 4, 5, 0, 0]"] ;
91 -> 92 ;
93 [label="gini = 0.0\nsamples = 4\nvalue = [0, 4, 0, 0, 0]"] ;
92 -> 93 ;
94 [label="gini = 0.0\nsamples = 5\nvalue = [0, 0, 5, 0, 0]"] ;
92 -> 94 ;
95 [label="gini = 0.0\nsamples = 8\nvalue = [8, 0, 0, 0, 0]"] ;
91 -> 95 ;
96 [label="row <= 3.5\ngini = 0.465\nsamples = 19\nvalue = [7, 12, 0, 0, 0]"] ;
82 -> 96 ;
97 [label="pass <= 0.5\ngini = 0.496\nsamples = 11\nvalue = [5, 6, 0, 0, 0]"] ;
96 -> 97 ;
98 [label="col <= 0.5\ngini = 0.48\nsamples = 5\nvalue = [2, 3, 0, 0, 0]"] ;
97 -> 98 ;
99 [label="gini = 0.0\nsamples = 3\nvalue = [0, 3, 0, 0, 0]"] ;
98 -> 99 ;
100 [label="gini = 0.0\nsamples = 2\nvalue = [2, 0, 0, 0, 0]"] ;
98 -> 100 ;
101 [label="col <= 0.5\ngini = 0.5\nsamples = 6\nvalue = [3, 3, 0, 0, 0]"] ;
97 -> 101 ;
102 [label="gini = 0.0\nsamples = 3\nvalue = [3, 0, 0, 0, 0]"] ;
101 -> 102 ;
103 [label="gini = 0.0\nsamples = 3\nvalue = [0, 3, 0, 0, 0]"] ;
101 -> 103 ;
104 [label="col <= 0.5\ngini = 0.375\nsamples = 8\nvalue = [2, 6, 0, 0, 0]"] ;
96 -> 104 ;
105 [label="gini = 0.0\nsamples = 4\nvalue = [0, 4, 0, 0, 0]"] ;
104 -> 105 ;
106 [label="pass <= 0.5\ngini = 0.5\nsamples = 4\nvalue = [2, 2, 0, 0, 0]"] ;
104 -> 106 ;
107 [label="gini = 0.0\nsamples = 2\nvalue = [2, 0, 0, 0, 0]"] ;
106 -> 107 ;
108 [label="gini = 0.0\nsamples = 2\nvalue = [0, 2, 0, 0, 0]"] ;
106 -> 108 ;
109 [label="pass <= 0.5\ngini = 0.707\nsamples = 219\nvalue = [78, 75, 42, 24, 0]"] ;
59 -> 109 ;
110 [label="row <= 2.5\ngini = 0.67\nsamples = 130\nvalue = [60, 36, 10, 24, 0]"] ;
109 -> 110 ;
111 [label="dest <= 2.5\ngini = 0.594\nsamples = 56\nvalue = [28, 7, 0, 21, 0]"] ;
110 -> 111 ;
112 [label="dest <= 1.5\ngini = 0.5\nsamples = 39\nvalue = [26, 7, 0, 6, 0]"] ;
111 -> 112 ;
113 [label="row <= 1.5\ngini = 0.667\nsamples = 18\nvalue = [6, 6, 0, 6, 0]"] ;
112 -> 113 ;
114 [label="col <= 2.5\ngini = 0.496\nsamples = 11\nvalue = [5, 6, 0, 0, 0]"] ;
113 -> 114 ;
115 [label="gini = 0.0\nsamples = 5\nvalue = [5, 0, 0, 0, 0]"] ;
114 -> 115 ;
116 [label="gini = 0.0\nsamples = 6\nvalue = [0, 6, 0, 0, 0]"] ;
114 -> 116 ;
117 [label="col <= 3.5\ngini = 0.245\nsamples = 7\nvalue = [1, 0, 0, 6, 0]"] ;
113 -> 117 ;
118 [label="gini = 0.0\nsamples = 6\nvalue = [0, 0, 0, 6, 0]"] ;
117 -> 118 ;
119 [label="gini = 0.0\nsamples = 1\nvalue = [1, 0, 0, 0, 0]"] ;
117 -> 119 ;
120 [label="col <= 2.5\ngini = 0.091\nsamples = 21\nvalue = [20, 1, 0, 0, 0]"] ;
112 -> 120 ;
121 [label="row <= 1.5\ngini = 0.375\nsamples = 4\nvalue = [3, 1, 0, 0, 0]"] ;
120 -> 121 ;
122 [label="gini = 0.0\nsamples = 1\nvalue = [0, 1, 0, 0, 0]"] ;
121 -> 122 ;
123 [label="gini = 0.0\nsamples = 3\nvalue = [3, 0, 0, 0, 0]"] ;
121 -> 123 ;
124 [label="gini = 0.0\nsamples = 17\nvalue = [17, 0, 0, 0, 0]"] ;
120 -> 124 ;
125 [label="row <= 1.5\ngini = 0.208\nsamples = 17\nvalue = [2, 0, 0, 15, 0]"] ;
111 -> 125 ;
126 [label="gini = 0.0\nsamples = 2\nvalue = [2, 0, 0, 0, 0]"] ;
125 -> 126 ;
127 [label="gini = 0.0\nsamples = 15\nvalue = [0, 0, 0, 15, 0]"] ;
125 -> 127 ;
128 [label="dest <= 2.5\ngini = 0.64\nsamples = 74\nvalue = [32, 29, 10, 3, 0]"] ;
110 -> 128 ;
129 [label="dest <= 1.5\ngini = 0.613\nsamples = 44\nvalue = [14, 23, 4, 3, 0]"] ;
128 -> 129 ;
130 [label="row <= 3.5\ngini = 0.445\nsamples = 20\nvalue = [14, 5, 0, 1, 0]"] ;
129 -> 130 ;
131 [label="col <= 3.5\ngini = 0.496\nsamples = 11\nvalue = [6, 5, 0, 0, 0]"] ;
130 -> 131 ;
132 [label="gini = 0.0\nsamples = 5\nvalue = [0, 5, 0, 0, 0]"] ;
131 -> 132 ;
133 [label="gini = 0.0\nsamples = 6\nvalue = [6, 0, 0, 0, 0]"] ;
131 -> 133 ;
134 [label="col <= 3.5\ngini = 0.198\nsamples = 9\nvalue = [8, 0, 0, 1, 0]"] ;
130 -> 134 ;
135 [label="gini = 0.0\nsamples = 8\nvalue = [8, 0, 0, 0, 0]"] ;
134 -> 135 ;
136 [label="gini = 0.0\nsamples = 1\nvalue = [0, 0, 0, 1, 0]"] ;
134 -> 136 ;
137 [label="col <= 3.5\ngini = 0.403\nsamples = 24\nvalue = [0, 18, 4, 2, 0]"] ;
129 -> 137 ;
138 [label="row <= 3.5\ngini = 0.64\nsamples = 10\nvalue = [0, 4, 4, 2, 0]"] ;
137 -> 138 ;
139 [label="col <= 2.5\ngini = 0.48\nsamples = 5\nvalue = [0, 0, 3, 2, 0]"] ;
138 -> 139 ;
140 [label="gini = 0.0\nsamples = 2\nvalue = [0, 0, 0, 2, 0]"] ;
139 -> 140 ;
141 [label="gini = 0.0\nsamples = 3\nvalue = [0, 0, 3, 0, 0]"] ;
139 -> 141 ;
142 [label="col <= 2.5\ngini = 0.32\nsamples = 5\nvalue = [0, 4, 1, 0, 0]"] ;
138 -> 142 ;
143 [label="gini = 0.0\nsamples = 1\nvalue = [0, 0, 1, 0, 0]"] ;
142 -> 143 ;
144 [label="gini = 0.0\nsamples = 4\nvalue = [0, 4, 0, 0, 0]"] ;
142 -> 144 ;
145 [label="gini = 0.0\nsamples = 14\nvalue = [0, 14, 0, 0, 0]"] ;
137 -> 145 ;
146 [label="col <= 3.5\ngini = 0.56\nsamples = 30\nvalue = [18, 6, 6, 0, 0]"] ;
128 -> 146 ;
147 [label="row <= 3.5\ngini = 0.665\nsamples = 19\nvalue = [7, 6, 6, 0, 0]"] ;
146 -> 147 ;
148 [label="gini = 0.0\nsamples = 6\nvalue = [0, 6, 0, 0, 0]"] ;
147 -> 148 ;
149 [label="col <= 2.5\ngini = 0.497\nsamples = 13\nvalue = [7, 0, 6, 0, 0]"] ;
147 -> 149 ;
150 [label="gini = 0.0\nsamples = 7\nvalue = [7, 0, 0, 0, 0]"] ;
149 -> 150 ;
151 [label="gini = 0.0\nsamples = 6\nvalue = [0, 0, 6, 0, 0]"] ;
149 -> 151 ;
152 [label="gini = 0.0\nsamples = 11\nvalue = [11, 0, 0, 0, 0]"] ;
146 -> 152 ;
153 [label="col <= 3.5\ngini = 0.638\nsamples = 89\nvalue = [18, 39, 32, 0, 0]"] ;
109 -> 153 ;
154 [label="row <= 2.5\ngini = 0.656\nsamples = 65\nvalue = [18, 20, 27, 0, 0]"] ;
153 -> 154 ;
155 [label="col <= 2.5\ngini = 0.32\nsamples = 30\nvalue = [6, 0, 24, 0, 0]"] ;
154 -> 155 ;
156 [label="gini = 0.0\nsamples = 15\nvalue = [0, 0, 15, 0, 0]"] ;
155 -> 156 ;
157 [label="dest <= 2.5\ngini = 0.48\nsamples = 15\nvalue = [6, 0, 9, 0, 0]"] ;
155 -> 157 ;
158 [label="row <= 1.5\ngini = 0.375\nsamples = 8\nvalue = [6, 0, 2, 0, 0]"] ;
157 -> 158 ;
159 [label="gini = 0.0\nsamples = 6\nvalue = [6, 0, 0, 0, 0]"] ;
158 -> 159 ;
160 [label="gini = 0.0\nsamples = 2\nvalue = [0, 0, 2, 0, 0]"] ;
158 -> 160 ;
161 [label="gini = 0.0\nsamples = 7\nvalue = [0, 0, 7, 0, 0]"] ;
157 -> 161 ;
162 [label="row <= 3.5\ngini = 0.549\nsamples = 35\nvalue = [12, 20, 3, 0, 0]"] ;
154 -> 162 ;
163 [label="dest <= 2.5\ngini = 0.388\nsamples = 19\nvalue = [5, 14, 0, 0, 0]"] ;
162 -> 163 ;
164 [label="col <= 2.5\ngini = 0.5\nsamples = 10\nvalue = [5, 5, 0, 0, 0]"] ;
163 -> 164 ;
165 [label="gini = 0.0\nsamples = 5\nvalue = [0, 5, 0, 0, 0]"] ;
164 -> 165 ;
166 [label="gini = 0.0\nsamples = 5\nvalue = [5, 0, 0, 0, 0]"] ;
164 -> 166 ;
167 [label="gini = 0.0\nsamples = 9\nvalue = [0, 9, 0, 0, 0]"] ;
163 -> 167 ;
168 [label="dest <= 2.5\ngini = 0.633\nsamples = 16\nvalue = [7, 6, 3, 0, 0]"] ;
162 -> 168 ;
169 [label="col <= 2.5\ngini = 0.375\nsamples = 8\nvalue = [2, 6, 0, 0, 0]"] ;
168 -> 169 ;
170 [label="gini = 0.0\nsamples = 6\nvalue = [0, 6, 0, 0, 0]"] ;
169 -> 170 ;
171 [label="gini = 0.0\nsamples = 2\nvalue = [2, 0, 0, 0, 0]"] ;
169 -> 171 ;
172 [label="col <= 2.5\ngini = 0.469\nsamples = 8\nvalue = [5, 0, 3, 0, 0]"] ;
168 -> 172 ;
173 [label="gini = 0.0\nsamples = 5\nvalue = [5, 0, 0, 0, 0]"] ;
172 -> 173 ;
174 [label="gini = 0.0\nsamples = 3\nvalue = [0, 0, 3, 0, 0]"] ;
172 -> 174 ;
175 [label="row <= 2.5\ngini = 0.33\nsamples = 24\nvalue = [0, 19, 5, 0, 0]"] ;
153 -> 175 ;
176 [label="gini = 0.0\nsamples = 14\nvalue = [0, 14, 0, 0, 0]"] ;
175 -> 176 ;
177 [label="dest <= 2.5\ngini = 0.5\nsamples = 10\nvalue = [0, 5, 5, 0, 0]"] ;
175 -> 177 ;
178 [label="gini = 0.0\nsamples = 5\nvalue = [0, 5, 0, 0, 0]"] ;
177 -> 178 ;
179 [label="gini = 0.0\nsamples = 5\nvalue = [0, 0, 5, 0, 0]"] ;
177 -> 179 ;
180 [label="row <= 1.5\ngini = 0.634\nsamples = 485\nvalue = [265, 85, 33, 86, 16]"] ;
0 -> 180 [labeldistance=2.5, labelangle=-45, headlabel="False"] ;
181 [label="pass <= 2.5\ngini = 0.434\nsamples = 186\nvalue = [136, 28, 5, 17, 0]"] ;
180 -> 181 ;
182 [label="col <= 3.5\ngini = 0.327\nsamples = 95\nvalue = [77, 4, 3, 11, 0]"] ;
181 -> 182 ;
183 [label="col <= 0.5\ngini = 0.293\nsamples = 82\nvalue = [68, 0, 3, 11, 0]"] ;
182 -> 183 ;
184 [label="gini = 0.0\nsamples = 21\nvalue = [21, 0, 0, 0, 0]"] ;
183 -> 184 ;
185 [label="col <= 1.5\ngini = 0.371\nsamples = 61\nvalue = [47, 0, 3, 11, 0]"] ;
183 -> 185 ;
186 [label="dest <= 2.0\ngini = 0.408\nsamples = 21\nvalue = [15, 0, 0, 6, 0]"] ;
185 -> 186 ;
187 [label="dest <= 0.5\ngini = 0.48\nsamples = 15\nvalue = [9, 0, 0, 6, 0]"] ;
186 -> 187 ;
188 [label="row <= 0.5\ngini = 0.444\nsamples = 9\nvalue = [6, 0, 0, 3, 0]"] ;
187 -> 188 ;
189 [label="gini = 0.0\nsamples = 3\nvalue = [0, 0, 0, 3, 0]"] ;
188 -> 189 ;
190 [label="gini = 0.0\nsamples = 6\nvalue = [6, 0, 0, 0, 0]"] ;
188 -> 190 ;
191 [label="row <= 0.5\ngini = 0.5\nsamples = 6\nvalue = [3, 0, 0, 3, 0]"] ;
187 -> 191 ;
192 [label="gini = 0.0\nsamples = 3\nvalue = [3, 0, 0, 0, 0]"] ;
191 -> 192 ;
193 [label="gini = 0.0\nsamples = 3\nvalue = [0, 0, 0, 3, 0]"] ;
191 -> 193 ;
194 [label="gini = 0.0\nsamples = 6\nvalue = [6, 0, 0, 0, 0]"] ;
186 -> 194 ;
195 [label="dest <= 2.0\ngini = 0.339\nsamples = 40\nvalue = [32, 0, 3, 5, 0]"] ;
185 -> 195 ;
196 [label="dest <= 0.5\ngini = 0.227\nsamples = 23\nvalue = [20, 0, 3, 0, 0]"] ;
195 -> 196 ;
197 [label="gini = 0.0\nsamples = 13\nvalue = [13, 0, 0, 0, 0]"] ;
196 -> 197 ;
198 [label="row <= 0.5\ngini = 0.42\nsamples = 10\nvalue = [7, 0, 3, 0, 0]"] ;
196 -> 198 ;
199 [label="col <= 2.5\ngini = 0.48\nsamples = 5\nvalue = [2, 0, 3, 0, 0]"] ;
198 -> 199 ;
200 [label="gini = 0.0\nsamples = 3\nvalue = [0, 0, 3, 0, 0]"] ;
199 -> 200 ;
201 [label="gini = 0.0\nsamples = 2\nvalue = [2, 0, 0, 0, 0]"] ;
199 -> 201 ;
202 [label="gini = 0.0\nsamples = 5\nvalue = [5, 0, 0, 0, 0]"] ;
198 -> 202 ;
203 [label="col <= 2.5\ngini = 0.415\nsamples = 17\nvalue = [12, 0, 0, 5, 0]"] ;
195 -> 203 ;
204 [label="gini = 0.0\nsamples = 8\nvalue = [8, 0, 0, 0, 0]"] ;
203 -> 204 ;
205 [label="row <= 0.5\ngini = 0.494\nsamples = 9\nvalue = [4, 0, 0, 5, 0]"] ;
203 -> 205 ;
206 [label="gini = 0.0\nsamples = 4\nvalue = [4, 0, 0, 0, 0]"] ;
205 -> 206 ;
207 [label="gini = 0.0\nsamples = 5\nvalue = [0, 0, 0, 5, 0]"] ;
205 -> 207 ;
208 [label="dest <= 0.5\ngini = 0.426\nsamples = 13\nvalue = [9, 4, 0, 0, 0]"] ;
182 -> 208 ;
209 [label="gini = 0.0\nsamples = 5\nvalue = [5, 0, 0, 0, 0]"] ;
208 -> 209 ;
210 [label="dest <= 2.0\ngini = 0.5\nsamples = 8\nvalue = [4, 4, 0, 0, 0]"] ;
208 -> 210 ;
211 [label="gini = 0.0\nsamples = 4\nvalue = [0, 4, 0, 0, 0]"] ;
210 -> 211 ;
212 [label="gini = 0.0\nsamples = 4\nvalue = [4, 0, 0, 0, 0]"] ;
210 -> 212 ;
213 [label="col <= 1.5\ngini = 0.505\nsamples = 91\nvalue = [59, 24, 2, 6, 0]"] ;
181 -> 213 ;
214 [label="dest <= 1.5\ngini = 0.429\nsamples = 52\nvalue = [38, 8, 0, 6, 0]"] ;
213 -> 214 ;
215 [label="gini = 0.0\nsamples = 32\nvalue = [32, 0, 0, 0, 0]"] ;
214 -> 215 ;
216 [label="col <= 0.5\ngini = 0.66\nsamples = 20\nvalue = [6, 8, 0, 6, 0]"] ;
214 -> 216 ;
217 [label="row <= 0.5\ngini = 0.32\nsamples = 10\nvalue = [2, 8, 0, 0, 0]"] ;
216 -> 217 ;
218 [label="gini = 0.0\nsamples = 8\nvalue = [0, 8, 0, 0, 0]"] ;
217 -> 218 ;
219 [label="gini = 0.0\nsamples = 2\nvalue = [2, 0, 0, 0, 0]"] ;
217 -> 219 ;
220 [label="row <= 0.5\ngini = 0.48\nsamples = 10\nvalue = [4, 0, 0, 6, 0]"] ;
216 -> 220 ;
221 [label="gini = 0.0\nsamples = 4\nvalue = [4, 0, 0, 0, 0]"] ;
220 -> 221 ;
222 [label="gini = 0.0\nsamples = 6\nvalue = [0, 0, 0, 6, 0]"] ;
220 -> 222 ;
223 [label="dest <= 0.5\ngini = 0.539\nsamples = 39\nvalue = [21, 16, 2, 0, 0]"] ;
213 -> 223 ;
224 [label="row <= 0.5\ngini = 0.208\nsamples = 17\nvalue = [2, 15, 0, 0, 0]"] ;
223 -> 224 ;
225 [label="col <= 2.5\ngini = 0.346\nsamples = 9\nvalue = [2, 7, 0, 0, 0]"] ;
224 -> 225 ;
226 [label="gini = 0.0\nsamples = 4\nvalue = [0, 4, 0, 0, 0]"] ;
225 -> 226 ;
227 [label="col <= 3.5\ngini = 0.48\nsamples = 5\nvalue = [2, 3, 0, 0, 0]"] ;
225 -> 227 ;
228 [label="gini = 0.0\nsamples = 2\nvalue = [2, 0, 0, 0, 0]"] ;
227 -> 228 ;
229 [label="gini = 0.0\nsamples = 3\nvalue = [0, 3, 0, 0, 0]"] ;
227 -> 229 ;
230 [label="gini = 0.0\nsamples = 8\nvalue = [0, 8, 0, 0, 0]"] ;
224 -> 230 ;
231 [label="col <= 2.5\ngini = 0.244\nsamples = 22\nvalue = [19, 1, 2, 0, 0]"] ;
223 -> 231 ;
232 [label="dest <= 1.5\ngini = 0.571\nsamples = 7\nvalue = [4, 1, 2, 0, 0]"] ;
231 -> 232 ;
233 [label="row <= 0.5\ngini = 0.375\nsamples = 4\nvalue = [3, 1, 0, 0, 0]"] ;
232 -> 233 ;
234 [label="gini = 0.0\nsamples = 1\nvalue = [0, 1, 0, 0, 0]"] ;
233 -> 234 ;
235 [label="gini = 0.0\nsamples = 3\nvalue = [3, 0, 0, 0, 0]"] ;
233 -> 235 ;
236 [label="row <= 0.5\ngini = 0.444\nsamples = 3\nvalue = [1, 0, 2, 0, 0]"] ;
232 -> 236 ;
237 [label="gini = 0.0\nsamples = 1\nvalue = [1, 0, 0, 0, 0]"] ;
236 -> 237 ;
238 [label="gini = 0.0\nsamples = 2\nvalue = [0, 0, 2, 0, 0]"] ;
236 -> 238 ;
239 [label="gini = 0.0\nsamples = 15\nvalue = [15, 0, 0, 0, 0]"] ;
231 -> 239 ;
240 [label="row <= 2.5\ngini = 0.713\nsamples = 299\nvalue = [129, 57, 28, 69, 16]"] ;
180 -> 240 ;
241 [label="pass <= 2.5\ngini = 0.638\nsamples = 101\nvalue = [32, 4, 16, 49, 0]"] ;
240 -> 241 ;
242 [label="col <= 0.5\ngini = 0.3\nsamples = 49\nvalue = [9, 0, 0, 40, 0]"] ;
241 -> 242 ;
243 [label="gini = 0.0\nsamples = 5\nvalue = [5, 0, 0, 0, 0]"] ;
242 -> 243 ;
244 [label="col <= 3.5\ngini = 0.165\nsamples = 44\nvalue = [4, 0, 0, 40, 0]"] ;
242 -> 244 ;
245 [label="gini = 0.0\nsamples = 35\nvalue = [0, 0, 0, 35, 0]"] ;
244 -> 245 ;
246 [label="dest <= 1.5\ngini = 0.494\nsamples = 9\nvalue = [4, 0, 0, 5, 0]"] ;
244 -> 246 ;
247 [label="gini = 0.0\nsamples = 5\nvalue = [0, 0, 0, 5, 0]"] ;
246 -> 247 ;
248 [label="gini = 0.0\nsamples = 4\nvalue = [4, 0, 0, 0, 0]"] ;
246 -> 248 ;
249 [label="col <= 2.5\ngini = 0.674\nsamples = 52\nvalue = [23, 4, 16, 9, 0]"] ;
241 -> 249 ;
250 [label="col <= 1.5\ngini = 0.638\nsamples = 30\nvalue = [7, 0, 14, 9, 0]"] ;
249 -> 250 ;
251 [label="dest <= 1.5\ngini = 0.663\nsamples = 24\nvalue = [7, 0, 8, 9, 0]"] ;
250 -> 251 ;
252 [label="dest <= 0.5\ngini = 0.631\nsamples = 15\nvalue = [7, 0, 5, 3, 0]"] ;
251 -> 252 ;
253 [label="col <= 0.5\ngini = 0.469\nsamples = 8\nvalue = [0, 0, 5, 3, 0]"] ;
252 -> 253 ;
254 [label="gini = 0.0\nsamples = 5\nvalue = [0, 0, 5, 0, 0]"] ;
253 -> 254 ;
255 [label="gini = 0.0\nsamples = 3\nvalue = [0, 0, 0, 3, 0]"] ;
253 -> 255 ;
256 [label="gini = 0.0\nsamples = 7\nvalue = [7, 0, 0, 0, 0]"] ;
252 -> 256 ;
257 [label="col <= 0.5\ngini = 0.444\nsamples = 9\nvalue = [0, 0, 3, 6, 0]"] ;
251 -> 257 ;
258 [label="gini = 0.0\nsamples = 6\nvalue = [0, 0, 0, 6, 0]"] ;
257 -> 258 ;
259 [label="gini = 0.0\nsamples = 3\nvalue = [0, 0, 3, 0, 0]"] ;
257 -> 259 ;
260 [label="gini = 0.0\nsamples = 6\nvalue = [0, 0, 6, 0, 0]"] ;
250 -> 260 ;
261 [label="col <= 3.5\ngini = 0.43\nsamples = 22\nvalue = [16, 4, 2, 0, 0]"] ;
249 -> 261 ;
262 [label="gini = 0.0\nsamples = 12\nvalue = [12, 0, 0, 0, 0]"] ;
261 -> 262 ;
263 [label="dest <= 1.5\ngini = 0.64\nsamples = 10\nvalue = [4, 4, 2, 0, 0]"] ;
261 -> 263 ;
264 [label="dest <= 0.5\ngini = 0.444\nsamples = 6\nvalue = [4, 0, 2, 0, 0]"] ;
263 -> 264 ;
265 [label="gini = 0.0\nsamples = 2\nvalue = [0, 0, 2, 0, 0]"] ;
264 -> 265 ;
266 [label="gini = 0.0\nsamples = 4\nvalue = [4, 0, 0, 0, 0]"] ;
264 -> 266 ;
267 [label="gini = 0.0\nsamples = 4\nvalue = [0, 4, 0, 0, 0]"] ;
263 -> 267 ;
268 [label="col <= 3.5\ngini = 0.668\nsamples = 198\nvalue = [97, 53, 12, 20, 16]"] ;
240 -> 268 ;
269 [label="col <= 2.5\ngini = 0.63\nsamples = 154\nvalue = [78, 48, 11, 1, 16]"] ;
268 -> 269 ;
270 [label="dest <= 1.5\ngini = 0.64\nsamples = 101\nvalue = [43, 41, 11, 1, 5]"] ;
269 -> 270 ;
271 [label="dest <= 0.5\ngini = 0.654\nsamples = 67\nvalue = [33, 18, 11, 1, 4]"] ;
270 -> 271 ;
272 [label="pass <= 2.5\ngini = 0.471\nsamples = 34\nvalue = [23, 9, 0, 1, 1]"] ;
271 -> 272 ;
273 [label="col <= 0.5\ngini = 0.105\nsamples = 18\nvalue = [17, 0, 0, 0, 1]"] ;
272 -> 273 ;
274 [label="row <= 3.5\ngini = 0.5\nsamples = 2\nvalue = [1, 0, 0, 0, 1]"] ;
273 -> 274 ;
275 [label="gini = 0.0\nsamples = 1\nvalue = [1, 0, 0, 0, 0]"] ;
274 -> 275 ;
276 [label="gini = 0.0\nsamples = 1\nvalue = [0, 0, 0, 0, 1]"] ;
274 -> 276 ;
277 [label="gini = 0.0\nsamples = 16\nvalue = [16, 0, 0, 0, 0]"] ;
273 -> 277 ;
278 [label="col <= 1.5\ngini = 0.539\nsamples = 16\nvalue = [6, 9, 0, 1, 0]"] ;
272 -> 278 ;
279 [label="col <= 0.5\ngini = 0.245\nsamples = 7\nvalue = [6, 0, 0, 1, 0]"] ;
278 -> 279 ;
280 [label="gini = 0.0\nsamples = 4\nvalue = [4, 0, 0, 0, 0]"] ;
279 -> 280 ;
281 [label="row <= 3.5\ngini = 0.444\nsamples = 3\nvalue = [2, 0, 0, 1, 0]"] ;
279 -> 281 ;
282 [label="gini = 0.0\nsamples = 2\nvalue = [2, 0, 0, 0, 0]"] ;
281 -> 282 ;
283 [label="gini = 0.0\nsamples = 1\nvalue = [0, 0, 0, 1, 0]"] ;
281 -> 283 ;
284 [label="gini = 0.0\nsamples = 9\nvalue = [0, 9, 0, 0, 0]"] ;
278 -> 284 ;
285 [label="row <= 3.5\ngini = 0.714\nsamples = 33\nvalue = [10, 9, 11, 0, 3]"] ;
271 -> 285 ;
286 [label="col <= 0.5\ngini = 0.586\nsamples = 16\nvalue = [3, 9, 4, 0, 0]"] ;
285 -> 286 ;
287 [label="gini = 0.0\nsamples = 3\nvalue = [3, 0, 0, 0, 0]"] ;
286 -> 287 ;
288 [label="pass <= 2.5\ngini = 0.426\nsamples = 13\nvalue = [0, 9, 4, 0, 0]"] ;
286 -> 288 ;
289 [label="gini = 0.0\nsamples = 7\nvalue = [0, 7, 0, 0, 0]"] ;
288 -> 289 ;
290 [label="col <= 1.5\ngini = 0.444\nsamples = 6\nvalue = [0, 2, 4, 0, 0]"] ;
288 -> 290 ;
291 [label="gini = 0.0\nsamples = 4\nvalue = [0, 0, 4, 0, 0]"] ;
290 -> 291 ;
292 [label="gini = 0.0\nsamples = 2\nvalue = [0, 2, 0, 0, 0]"] ;
290 -> 292 ;
293 [label="col <= 0.5\ngini = 0.63\nsamples = 17\nvalue = [7, 0, 7, 0, 3]"] ;
285 -> 293 ;
294 [label="pass <= 2.5\ngini = 0.375\nsamples = 4\nvalue = [1, 0, 0, 0, 3]"] ;
293 -> 294 ;
295 [label="gini = 0.0\nsamples = 3\nvalue = [0, 0, 0, 0, 3]"] ;
294 -> 295 ;
296 [label="gini = 0.0\nsamples = 1\nvalue = [1, 0, 0, 0, 0]"] ;
294 -> 296 ;
297 [label="col <= 1.5\ngini = 0.497\nsamples = 13\nvalue = [6, 0, 7, 0, 0]"] ;
293 -> 297 ;
298 [label="pass <= 2.5\ngini = 0.444\nsamples = 6\nvalue = [2, 0, 4, 0, 0]"] ;
297 -> 298 ;
299 [label="gini = 0.0\nsamples = 2\nvalue = [2, 0, 0, 0, 0]"] ;
298 -> 299 ;
300 [label="gini = 0.0\nsamples = 4\nvalue = [0, 0, 4, 0, 0]"] ;
298 -> 300 ;
301 [label="pass <= 2.5\ngini = 0.49\nsamples = 7\nvalue = [4, 0, 3, 0, 0]"] ;
297 -> 301 ;
302 [label="gini = 0.0\nsamples = 3\nvalue = [0, 0, 3, 0, 0]"] ;
301 -> 302 ;
303 [label="gini = 0.0\nsamples = 4\nvalue = [4, 0, 0, 0, 0]"] ;
301 -> 303 ;
304 [label="col <= 1.5\ngini = 0.455\nsamples = 34\nvalue = [10, 23, 0, 0, 1]"] ;
270 -> 304 ;
305 [label="col <= 0.5\ngini = 0.537\nsamples = 23\nvalue = [10, 12, 0, 0, 1]"] ;
304 -> 305 ;
306 [label="pass <= 2.5\ngini = 0.5\nsamples = 14\nvalue = [4, 9, 0, 0, 1]"] ;
305 -> 306 ;
307 [label="row <= 3.5\ngini = 0.32\nsamples = 5\nvalue = [4, 0, 0, 0, 1]"] ;
306 -> 307 ;
308 [label="gini = 0.0\nsamples = 4\nvalue = [4, 0, 0, 0, 0]"] ;
307 -> 308 ;
309 [label="gini = 0.0\nsamples = 1\nvalue = [0, 0, 0, 0, 1]"] ;
307 -> 309 ;
310 [label="gini = 0.0\nsamples = 9\nvalue = [0, 9, 0, 0, 0]"] ;
306 -> 310 ;
311 [label="pass <= 2.5\ngini = 0.444\nsamples = 9\nvalue = [6, 3, 0, 0, 0]"] ;
305 -> 311 ;
312 [label="gini = 0.0\nsamples = 3\nvalue = [0, 3, 0, 0, 0]"] ;
311 -> 312 ;
313 [label="gini = 0.0\nsamples = 6\nvalue = [6, 0, 0, 0, 0]"] ;
311 -> 313 ;
314 [label="gini = 0.0\nsamples = 11\nvalue = [0, 11, 0, 0, 0]"] ;
304 -> 314 ;
315 [label="pass <= 2.5\ngini = 0.503\nsamples = 53\nvalue = [35, 7, 0, 0, 11]"] ;
269 -> 315 ;
316 [label="row <= 3.5\ngini = 0.35\nsamples = 31\nvalue = [24, 7, 0, 0, 0]"] ;
315 -> 316 ;
317 [label="dest <= 0.5\ngini = 0.498\nsamples = 15\nvalue = [8, 7, 0, 0, 0]"] ;
316 -> 317 ;
318 [label="gini = 0.0\nsamples = 7\nvalue = [0, 7, 0, 0, 0]"] ;
317 -> 318 ;
319 [label="gini = 0.0\nsamples = 8\nvalue = [8, 0, 0, 0, 0]"] ;
317 -> 319 ;
320 [label="gini = 0.0\nsamples = 16\nvalue = [16, 0, 0, 0, 0]"] ;
316 -> 320 ;
321 [label="row <= 3.5\ngini = 0.5\nsamples = 22\nvalue = [11, 0, 0, 0, 11]"] ;
315 -> 321 ;
322 [label="gini = 0.0\nsamples = 11\nvalue = [11, 0, 0, 0, 0]"] ;
321 -> 322 ;
323 [label="gini = 0.0\nsamples = 11\nvalue = [0, 0, 0, 0, 11]"] ;
321 -> 323 ;
324 [label="pass <= 2.5\ngini = 0.614\nsamples = 44\nvalue = [19, 5, 1, 19, 0]"] ;
268 -> 324 ;
325 [label="dest <= 0.5\ngini = 0.555\nsamples = 20\nvalue = [12, 5, 0, 3, 0]"] ;
324 -> 325 ;
326 [label="gini = 0.0\nsamples = 6\nvalue = [6, 0, 0, 0, 0]"] ;
325 -> 326 ;
327 [label="dest <= 2.0\ngini = 0.643\nsamples = 14\nvalue = [6, 5, 0, 3, 0]"] ;
325 -> 327 ;
328 [label="row <= 3.5\ngini = 0.469\nsamples = 8\nvalue = [0, 5, 0, 3, 0]"] ;
327 -> 328 ;
329 [label="gini = 0.0\nsamples = 5\nvalue = [0, 5, 0, 0, 0]"] ;
328 -> 329 ;
330 [label="gini = 0.0\nsamples = 3\nvalue = [0, 0, 0, 3, 0]"] ;
328 -> 330 ;
331 [label="gini = 0.0\nsamples = 6\nvalue = [6, 0, 0, 0, 0]"] ;
327 -> 331 ;
332 [label="row <= 3.5\ngini = 0.469\nsamples = 24\nvalue = [7, 0, 1, 16, 0]"] ;
324 -> 332 ;
333 [label="dest <= 1.5\ngini = 0.5\nsamples = 14\nvalue = [7, 0, 0, 7, 0]"] ;
332 -> 333 ;
334 [label="dest <= 0.5\ngini = 0.42\nsamples = 10\nvalue = [3, 0, 0, 7, 0]"] ;
333 -> 334 ;
335 [label="gini = 0.0\nsamples = 3\nvalue = [3, 0, 0, 0, 0]"] ;
334 -> 335 ;
336 [label="gini = 0.0\nsamples = 7\nvalue = [0, 0, 0, 7, 0]"] ;
334 -> 336 ;
337 [label="gini = 0.0\nsamples = 4\nvalue = [4, 0, 0, 0, 0]"] ;
333 -> 337 ;
338 [label="dest <= 0.5\ngini = 0.18\nsamples = 10\nvalue = [0, 0, 1, 9, 0]"] ;
332 -> 338 ;
339 [label="gini = 0.0\nsamples = 5\nvalue = [0, 0, 0, 5, 0]"] ;
338 -> 339 ;
340 [label="dest <= 1.5\ngini = 0.32\nsamples = 5\nvalue = [0, 0, 1, 4, 0]"] ;
338 -> 340 ;
341 [label="gini = 0.0\nsamples = 1\nvalue = [0, 0, 1, 0, 0]"] ;
340 -> 341 ;
342 [label="gini = 0.0\nsamples = 4\nvalue = [0, 0, 0, 4, 0]"] ;
340 -> 342 ;
}