digraph Tree {
node [shape=box] ;
0 [label="row <= 2.5\ngini = 0.745\nsamples = 2000\nvalue = [619, 668, 239, 351, 85, 38]"] ;
1 [label="row <= 1.5\ngini = 0.746\nsamples = 1223\nvalue = [452, 240, 199, 276, 33, 23]"] ;
0 -> 1 [labeldistance=2.5, labelangle=45, headlabel="True"] ;
2 [label="pass <= 1.5\ngini = 0.69\nsamples = 751\nvalue = [368, 145, 82, 100, 33, 23]"] ;
1 -> 2 ;
3 [label="row <= 0.5\ngini = 0.77\nsamples = 296\nvalue = [88, 86, 43, 46, 33, 0]"] ;
2 -> 3 ;
4 [label="pass <= 0.5\ngini = 0.766\nsamples = 133\nvalue = [36, 7, 35, 22, 33, 0]"] ;
3 -> 4 ;
5 [label="col <= 0.5\ngini = 0.666\nsamples = 63\nvalue = [20, 0, 0, 22, 21, 0]"] ;
4 -> 5 ;
6 [label="gini = 0.0\nsamples = 21\nvalue = [0, 0, 0, 0, 21, 0]"] ;
5 -> 6 ;
7 [label="col <= 1.5\ngini = 0.499\nsamples = 42\nvalue = [20, 0, 0, 22, 0, 0]"] ;
5 -> 7 ;
8 [label="gini = 0.0\nsamples = 12\nvalue = [0, 0, 0, 12, 0, 0]"] ;
7 -> 8 ;
9 [label="col <= 3.5\ngini = 0.444\nsamples = 30\nvalue = [20, 0, 0, 10, 0, 0]"] ;
7 -> 9 ;
10 [label="col <= 2.5\ngini = 0.227\nsamples = 23\nvalue = [20, 0, 0, 3, 0, 0]"] ;
9 -> 10 ;
11 [label="gini = 0.0\nsamples = 14\nvalue = [14, 0, 0, 0, 0, 0]"] ;
10 -> 11 ;
12 [label="dest <= 1.5\ngini = 0.444\nsamples = 9\nvalue = [6, 0, 0, 3, 0, 0]"] ;
10 -> 12 ;
13 [label="gini = 0.0\nsamples = 5\nvalue = [5, 0, 0, 0, 0, 0]"] ;
12 -> 13 ;
14 [label="dest <= 2.5\ngini = 0.375\nsamples = 4\nvalue = [1, 0, 0, 3, 0, 0]"] ;
12 -> 14 ;
15 [label="gini = 0.0\nsamples = 3\nvalue = [0, 0, 0, 3, 0, 0]"] ;
14 -> 15 ;
16 [label="gini = 0.0\nsamples = 1\nvalue = [1, 0, 0, 0, 0, 0]"] ;
14 -> 16 ;
17 [label="gini = 0.0\nsamples = 7\nvalue = [0, 0, 0, 7, 0, 0]"] ;
9 -> 17 ;
18 [label="col <= 1.5\ngini = 0.658\nsamples = 70\nvalue = [16, 7, 35, 0, 12, 0]"] ;
4 -> 18 ;
19 [label="dest <= 1.0\ngini = 0.423\nsamples = 23\nvalue = [16, 7, 0, 0, 0, 0]"] ;
18 -> 19 ;
20 [label="col <= 0.5\ngini = 0.494\nsamples = 9\nvalue = [4, 5, 0, 0, 0, 0]"] ;
19 -> 20 ;
21 [label="gini = 0.0\nsamples = 5\nvalue = [0, 5, 0, 0, 0, 0]"] ;
20 -> 21 ;
22 [label="gini = 0.0\nsamples = 4\nvalue = [4, 0, 0, 0, 0, 0]"] ;
20 -> 22 ;
23 [label="dest <= 2.5\ngini = 0.245\nsamples = 14\nvalue = [12, 2, 0, 0, 0, 0]"] ;
19 -> 23 ;
24 [label="gini = 0.0\nsamples = 10\nvalue = [10, 0, 0, 0, 0, 0]"] ;
23 -> 24 ;
25 [label="col <= 0.5\ngini = 0.5\nsamples = 4\nvalue = [2, 2, 0, 0, 0, 0]"] ;
23 -> 25 ;
26 [label="gini = 0.0\nsamples = 2\nvalue = [2, 0, 0, 0, 0, 0]"] ;
25 -> 26 ;
27 [label="gini = 0.0\nsamples = 2\nvalue = [0, 2, 0, 0, 0, 0]"] ;
25 -> 27 ;
28 [label="col <= 3.5\ngini = 0.38\nsamples = 47\nvalue = [0, 0, 35, 0, 12, 0]"] ;
18 -> 28 ;
29 [label="gini = 0.0\nsamples = 35\nvalue = [0, 0, 35, 0, 0, 0]"] ;
28 -> 29 ;
30 [label="gini = 0.0\nsamples = 12\nvalue = [0, 0, 0, 0, 12, 0]"] ;
28 -> 30 ;
31 [label="col <= 2.5\ngini = 0.639\nsamples = 163\nvalue = [52, 79, 8, 24, 0, 0]"] ;
3 -> 31 ;
32 [label="dest <= 0.5\ngini = 0.602\nsamples = 107\nvalue = [42, 52, 8, 5, 0, 0]"] ;
31 -> 32 ;
33 [label="col <= 1.5\ngini = 0.444\nsamples = 15\nvalue = [10, 0, 5, 0, 0, 0]"] ;
32 -> 33 ;
34 [label="gini = 0.0\nsamples = 10\nvalue = [10, 0, 0, 0, 0, 0]"] ;
33 -> 34 ;
35 [label="gini = 0.0\nsamples = 5\nvalue = [0, 0, 5, 0, 0, 0]"] ;
33 -> 35 ;
36 [label="pass <= 0.5\ngini = 0.556\nsamples = 92\nvalue = [32, 52, 3, 5, 0, 0]"] ;
32 -> 36 ;
37 [label="col <= 1.5\ngini = 0.405\nsamples = 46\nvalue = [13, 33, 0, 0, 0, 0]"] ;
36 -> 37 ;
38 [label="gini = 0.0\nsamples = 33\nvalue = [0, 33, 0, 0, 0, 0]"] ;
37 -> 38 ;
39 [label="gini = 0.0\nsamples = 13\nvalue = [13, 0, 0, 0, 0, 0]"] ;
37 -> 39 ;
40 [label="col <= 1.5\ngini = 0.643\nsamples = 46\nvalue = [19, 19, 3, 5, 0, 0]"] ;
36 -> 40 ;
41 [label="col <= 0.5\ngini = 0.458\nsamples = 27\nvalue = [19, 0, 3, 5, 0, 0]"] ;
40 -> 41 ;
42 [label="dest <= 2.5\ngini = 0.291\nsamples = 17\nvalue = [14, 0, 3, 0, 0, 0]"] ;
41 -> 42 ;
43 [label="gini = 0.0\nsamples = 3\nvalue = [0, 0, 3, 0, 0, 0]"] ;
42 -> 43 ;
44 [label="gini = 0.0\nsamples = 14\nvalue = [14, 0, 0, 0, 0, 0]"] ;
42 -> 44 ;
45 [label="dest <= 2.5\ngini = 0.5\nsamples = 10\nvalue = [5, 0, 0, 5, 0, 0]"] ;
41 -> 45 ;
46 [label="gini = 0.0\nsamples = 5\nvalue = [5, 0, 0, 0, 0, 0]"] ;
45 -> 46 ;
47 [label="gini = 0.0\nsamples = 5\nvalue = [0, 0, 0, 5, 0, 0]"] ;
45 -> 47 ;
48 [label="gini = 0.0\nsamples = 19\nvalue = [0, 19, 0, 0, 0, 0]"] ;
40 -> 48 ;
49 [label="pass <= 0.5\ngini = 0.621\nsamples = 56\nvalue = [10, 27, 0, 19, 0, 0]"] ;
31 -> 49 ;
50 [label="dest <= 1.5\ngini = 0.452\nsamples = 29\nvalue = [10, 0, 0, 19, 0, 0]"] ;
49 -> 50 ;
51 [label="col <= 3.5\ngini = 0.497\nsamples = 13\nvalue = [6, 0, 0, 7, 0, 0]"] ;
50 -> 51 ;
52 [label="gini = 0.0\nsamples = 6\nvalue = [6, 0, 0, 0, 0, 0]"] ;
51 -> 52 ;
53 [label="gini = 0.0\nsamples = 7\nvalue = [0, 0, 0, 7, 0, 0]"] ;
51 -> 53 ;
54 [label="col <= 3.5\ngini = 0.375\nsamples = 16\nvalue = [4, 0, 0, 12, 0, 0]"] ;
50 -> 54 ;
55 [label="gini = 0.0\nsamples = 9\nvalue = [0, 0, 0, 9, 0, 0]"] ;
54 -> 55 ;
56 [label="dest <= 2.5\ngini = 0.49\nsamples = 7\nvalue = [4, 0, 0, 3, 0, 0]"] ;
54 -> 56 ;
57 [label="gini = 0.0\nsamples = 3\nvalue = [0, 0, 0, 3, 0, 0]"] ;
56 -> 57 ;
58 [label="gini = 0.0\nsamples = 4\nvalue = [4, 0, 0, 0, 0, 0]"] ;
56 -> 58 ;
59 [label="gini = 0.0\nsamples = 27\nvalue = [0, 27, 0, 0, 0, 0]"] ;
49 -> 59 ;
60 [label="pass <= 3.5\ngini = 0.58\nsamples = 455\nvalue = [280, 59, 39, 54, 0, 23]"] ;
2 -> 60 ;
61 [label="col <= 3.5\ngini = 0.448\nsamples = 241\nvalue = [173, 6, 22, 40, 0, 0]"] ;
60 -> 61 ;
62 [label="col <= 2.5\ngini = 0.373\nsamples = 200\nvalue = [156, 6, 19, 19, 0, 0]"] ;
61 -> 62 ;
63 [label="pass <= 2.5\ngini = 0.349\nsamples = 151\nvalue = [120, 6, 19, 6, 0, 0]"] ;
62 -> 63 ;
64 [label="dest <= 0.5\ngini = 0.139\nsamples = 68\nvalue = [63, 2, 0, 3, 0, 0]"] ;
63 -> 64 ;
65 [label="row <= 0.5\ngini = 0.291\nsamples = 30\nvalue = [25, 2, 0, 3, 0, 0]"] ;
64 -> 65 ;
66 [label="col <= 0.5\ngini = 0.52\nsamples = 14\nvalue = [9, 2, 0, 3, 0, 0]"] ;
65 -> 66 ;
67 [label="gini = 0.0\nsamples = 9\nvalue = [9, 0, 0, 0, 0, 0]"] ;
66 -> 67 ;
68 [label="col <= 1.5\ngini = 0.48\nsamples = 5\nvalue = [0, 2, 0, 3, 0, 0]"] ;
66 -> 68 ;
69 [label="gini = 0.0\nsamples = 3\nvalue = [0, 0, 0, 3, 0, 0]"] ;
68 -> 69 ;
70 [label="gini = 0.0\nsamples = 2\nvalue = [0, 2, 0, 0, 0, 0]"] ;
68 -> 70 ;
71 [label="gini = 0.0\nsamples = 16\nvalue = [16, 0, 0, 0, 0, 0]"] ;
65 -> 71 ;
72 [label="gini = 0.0\nsamples = 38\nvalue = [38, 0, 0, 0, 0, 0]"] ;
64 -> 72 ;
73 [label="row <= 0.5\ngini = 0.472\nsamples = 83\nvalue = [57, 4, 19, 3, 0, 0]"] ;
63 -> 73 ;
74 [label="dest <= 1.5\ngini = 0.496\nsamples = 35\nvalue = [24, 4, 4, 3, 0, 0]"] ;
73 -> 74 ;
75 [label="dest <= 0.5\ngini = 0.68\nsamples = 21\nvalue = [10, 4, 4, 3, 0, 0]"] ;
74 -> 75 ;
76 [label="col <= 0.5\ngini = 0.42\nsamples = 10\nvalue = [7, 0, 0, 3, 0, 0]"] ;
75 -> 76 ;
77 [label="gini = 0.0\nsamples = 6\nvalue = [6, 0, 0, 0, 0, 0]"] ;
76 -> 77 ;
78 [label="col <= 1.5\ngini = 0.375\nsamples = 4\nvalue = [1, 0, 0, 3, 0, 0]"] ;
76 -> 78 ;
79 [label="gini = 0.0\nsamples = 3\nvalue = [0, 0, 0, 3, 0, 0]"] ;
78 -> 79 ;
80 [label="gini = 0.0\nsamples = 1\nvalue = [1, 0, 0, 0, 0, 0]"] ;
78 -> 80 ;
81 [label="col <= 0.5\ngini = 0.661\nsamples = 11\nvalue = [3, 4, 4, 0, 0, 0]"] ;
75 -> 81 ;
82 [label="gini = 0.0\nsamples = 4\nvalue = [0, 4, 0, 0, 0, 0]"] ;
81 -> 82 ;
83 [label="col <= 1.5\ngini = 0.49\nsamples = 7\nvalue = [3, 0, 4, 0, 0, 0]"] ;
81 -> 83 ;
84 [label="gini = 0.0\nsamples = 4\nvalue = [0, 0, 4, 0, 0, 0]"] ;
83 -> 84 ;
85 [label="gini = 0.0\nsamples = 3\nvalue = [3, 0, 0, 0, 0, 0]"] ;
83 -> 85 ;
86 [label="gini = 0.0\nsamples = 14\nvalue = [14, 0, 0, 0, 0, 0]"] ;
74 -> 86 ;
87 [label="dest <= 1.5\ngini = 0.43\nsamples = 48\nvalue = [33, 0, 15, 0, 0, 0]"] ;
73 -> 87 ;
88 [label="dest <= 0.5\ngini = 0.327\nsamples = 34\nvalue = [27, 0, 7, 0, 0, 0]"] ;
87 -> 88 ;
89 [label="col <= 1.5\ngini = 0.498\nsamples = 15\nvalue = [8, 0, 7, 0, 0, 0]"] ;
88 -> 89 ;
90 [label="gini = 0.0\nsamples = 8\nvalue = [8, 0, 0, 0, 0, 0]"] ;
89 -> 90 ;
91 [label="gini = 0.0\nsamples = 7\nvalue = [0, 0, 7, 0, 0, 0]"] ;
89 -> 91 ;
92 [label="gini = 0.0\nsamples = 19\nvalue = [19, 0, 0, 0, 0, 0]"] ;
88 -> 92 ;
93 [label="col <= 0.5\ngini = 0.49\nsamples = 14\nvalue = [6, 0, 8, 0, 0, 0]"] ;
87 -> 93 ;
94 [label="gini = 0.0\nsamples = 8\nvalue = [0, 0, 8, 0, 0, 0]"] ;
93 -> 94 ;
95 [label="gini = 0.0\nsamples = 6\nvalue = [6, 0, 0, 0, 0, 0]"] ;
93 -> 95 ;
96 [label="row <= 0.5\ngini = 0.39\nsamples = 49\nvalue = [36, 0, 0, 13, 0, 0]"] ;
62 -> 96 ;
97 [label="pass <= 2.5\ngini = 0.252\nsamples = 27\nvalue = [23, 0, 0, 4, 0, 0]"] ;
96 -> 97 ;
98 [label="dest <= 0.5\ngini = 0.408\nsamples = 14\nvalue = [10, 0, 0, 4, 0, 0]"] ;
97 -> 98 ;
99 [label="gini = 0.0\nsamples = 6\nvalue = [6, 0, 0, 0, 0, 0]"] ;
98 -> 99 ;
100 [label="dest <= 2.0\ngini = 0.5\nsamples = 8\nvalue = [4, 0, 0, 4, 0, 0]"] ;
98 -> 100 ;
101 [label="gini = 0.0\nsamples = 4\nvalue = [0, 0, 0, 4, 0, 0]"] ;
100 -> 101 ;
102 [label="gini = 0.0\nsamples = 4\nvalue = [4, 0, 0, 0, 0, 0]"] ;
100 -> 102 ;
103 [label="gini = 0.0\nsamples = 13\nvalue = [13, 0, 0, 0, 0, 0]"] ;
97 -> 103 ;
104 [label="dest <= 1.5\ngini = 0.483\nsamples = 22\nvalue = [13, 0, 0, 9, 0, 0]"] ;
96 -> 104 ;
105 [label="pass <= 2.5\ngini = 0.498\nsamples = 15\nvalue = [7, 0, 0, 8, 0, 0]"] ;
104 -> 105 ;
106 [label="dest <= 0.5\ngini = 0.494\nsamples = 9\nvalue = [5, 0, 0, 4, 0, 0]"] ;
105 -> 106 ;
107 [label="gini = 0.0\nsamples = 4\nvalue = [0, 0, 0, 4, 0, 0]"] ;
106 -> 107 ;
108 [label="gini = 0.0\nsamples = 5\nvalue = [5, 0, 0, 0, 0, 0]"] ;
106 -> 108 ;
109 [label="dest <= 0.5\ngini = 0.444\nsamples = 6\nvalue = [2, 0, 0, 4, 0, 0]"] ;
105 -> 109 ;
110 [label="gini = 0.0\nsamples = 2\nvalue = [2, 0, 0, 0, 0, 0]"] ;
109 -> 110 ;
111 [label="gini = 0.0\nsamples = 4\nvalue = [0, 0, 0, 4, 0, 0]"] ;
109 -> 111 ;
112 [label="dest <= 2.5\ngini = 0.245\nsamples = 7\nvalue = [6, 0, 0, 1, 0, 0]"] ;
104 -> 112 ;
113 [label="gini = 0.0\nsamples = 6\nvalue = [6, 0, 0, 0, 0, 0]"] ;
112 -> 113 ;
114 [label="gini = 0.0\nsamples = 1\nvalue = [0, 0, 0, 1, 0, 0]"] ;
112 -> 114 ;
115 [label="pass <= 2.5\ngini = 0.56\nsamples = 41\nvalue = [17, 0, 3, 21, 0, 0]"] ;
61 -> 115 ;
116 [label="dest <= 2.0\ngini = 0.491\nsamples = 23\nvalue = [13, 0, 0, 10, 0, 0]"] ;
115 -> 116 ;
117 [label="row <= 0.5\ngini = 0.5\nsamples = 16\nvalue = [8, 0, 0, 8, 0, 0]"] ;
116 -> 117 ;
118 [label="dest <= 0.5\ngini = 0.375\nsamples = 8\nvalue = [2, 0, 0, 6, 0, 0]"] ;
117 -> 118 ;
119 [label="gini = 0.0\nsamples = 6\nvalue = [0, 0, 0, 6, 0, 0]"] ;
118 -> 119 ;
120 [label="gini = 0.0\nsamples = 2\nvalue = [2, 0, 0, 0, 0, 0]"] ;
118 -> 120 ;
121 [label="dest <= 0.5\ngini = 0.375\nsamples = 8\nvalue = [6, 0, 0, 2, 0, 0]"] ;
117 -> 121 ;
122 [label="gini = 0.0\nsamples = 6\nvalue = [6, 0, 0, 0, 0, 0]"] ;
121 -> 122 ;
123 [label="gini = 0.0\nsamples = 2\nvalue = [0, 0, 0, 2, 0, 0]"] ;
121 -> 123 ;
124 [label="row <= 0.5\ngini = 0.408\nsamples = 7\nvalue = [5, 0, 0, 2, 0, 0]"] ;
116 -> 124 ;
125 [label="gini = 0.0\nsamples = 5\nvalue = [5, 0, 0, 0, 0, 0]"] ;
124 -> 125 ;
126 [label="gini = 0.0\nsamples = 2\nvalue = [0, 0, 0, 2, 0, 0]"] ;
124 -> 126 ;
127 [label="row <= 0.5\ngini = 0.549\nsamples = 18\nvalue = [4, 0, 3, 11, 0, 0]"] ;
115 -> 127 ;
128 [label="dest <= 1.0\ngini = 0.444\nsamples = 6\nvalue = [4, 0, 0, 2, 0, 0]"] ;
127 -> 128 ;
129 [label="gini = 0.0\nsamples = 4\nvalue = [4, 0, 0, 0, 0, 0]"] ;
128 -> 129 ;
130 [label="gini = 0.0\nsamples = 2\nvalue = [0, 0, 0, 2, 0, 0]"] ;
128 -> 130 ;
131 [label="dest <= 0.5\ngini = 0.375\nsamples = 12\nvalue = [0, 0, 3, 9, 0, 0]"] ;
127 -> 131 ;
132 [label="gini = 0.0\nsamples = 5\nvalue = [0, 0, 0, 5, 0, 0]"] ;
131 -> 132 ;
133 [label="dest <= 1.5\ngini = 0.49\nsamples = 7\nvalue = [0, 0, 3, 4, 0, 0]"] ;
131 -> 133 ;
134 [label="gini = 0.0\nsamples = 3\nvalue = [0, 0, 3, 0, 0, 0]"] ;
133 -> 134 ;
135 [label="gini = 0.0\nsamples = 4\nvalue = [0, 0, 0, 4, 0, 0]"] ;
133 -> 135 ;
136 [label="dest <= 1.5\ngini = 0.667\nsamples = 214\nvalue = [107, 53, 17, 14, 0, 23]"] ;
60 -> 136 ;
137 [label="row <= 0.5\ngini = 0.712\nsamples = 141\nvalue = [47, 53, 7, 11, 0, 23]"] ;
136 -> 137 ;
138 [label="col <= 0.5\ngini = 0.691\nsamples = 68\nvalue = [27, 0, 7, 11, 0, 23]"] ;
137 -> 138 ;
139 [label="dest <= 0.5\ngini = 0.5\nsamples = 28\nvalue = [14, 0, 0, 0, 0, 14]"] ;
138 -> 139 ;
140 [label="gini = 0.0\nsamples = 14\nvalue = [0, 0, 0, 0, 0, 14]"] ;
139 -> 140 ;
141 [label="gini = 0.0\nsamples = 14\nvalue = [14, 0, 0, 0, 0, 0]"] ;
139 -> 141 ;
142 [label="col <= 1.5\ngini = 0.738\nsamples = 40\nvalue = [13, 0, 7, 11, 0, 9]"] ;
138 -> 142 ;
143 [label="gini = 0.0\nsamples = 11\nvalue = [0, 0, 0, 11, 0, 0]"] ;
142 -> 143 ;
144 [label="dest <= 0.5\ngini = 0.644\nsamples = 29\nvalue = [13, 0, 7, 0, 0, 9]"] ;
142 -> 144 ;
145 [label="col <= 2.5\ngini = 0.231\nsamples = 15\nvalue = [13, 0, 2, 0, 0, 0]"] ;
144 -> 145 ;
146 [label="gini = 0.0\nsamples = 2\nvalue = [0, 0, 2, 0, 0, 0]"] ;
145 -> 146 ;
147 [label="gini = 0.0\nsamples = 13\nvalue = [13, 0, 0, 0, 0, 0]"] ;
145 -> 147 ;
148 [label="col <= 3.5\ngini = 0.459\nsamples = 14\nvalue = [0, 0, 5, 0, 0, 9]"] ;
144 -> 148 ;
149 [label="gini = 0.0\nsamples = 5\nvalue = [0, 0, 5, 0, 0, 0]"] ;
148 -> 149 ;
150 [label="gini = 0.0\nsamples = 9\nvalue = [0, 0, 0, 0, 0, 9]"] ;
148 -> 150 ;
151 [label="dest <= 0.5\ngini = 0.398\nsamples = 73\nvalue = [20, 53, 0, 0, 0, 0]"] ;
137 -> 151 ;
152 [label="col <= 1.5\ngini = 0.464\nsamples = 30\nvalue = [11, 19, 0, 0, 0, 0]"] ;
151 -> 152 ;
153 [label="gini = 0.0\nsamples = 19\nvalue = [0, 19, 0, 0, 0, 0]"] ;
152 -> 153 ;
154 [label="gini = 0.0\nsamples = 11\nvalue = [11, 0, 0, 0, 0, 0]"] ;
152 -> 154 ;
155 [label="col <= 1.5\ngini = 0.331\nsamples = 43\nvalue = [9, 34, 0, 0, 0, 0]"] ;
151 -> 155 ;
156 [label="gini = 0.0\nsamples = 9\nvalue = [9, 0, 0, 0, 0, 0]"] ;
155 -> 156 ;
157 [label="gini = 0.0\nsamples = 34\nvalue = [0, 34, 0, 0, 0, 0]"] ;
155 -> 157 ;
158 [label="col <= 0.5\ngini = 0.304\nsamples = 73\nvalue = [60, 0, 10, 3, 0, 0]"] ;
136 -> 158 ;
159 [label="dest <= 2.5\ngini = 0.499\nsamples = 21\nvalue = [11, 0, 10, 0, 0, 0]"] ;
158 -> 159 ;
160 [label="gini = 0.0\nsamples = 11\nvalue = [11, 0, 0, 0, 0, 0]"] ;
159 -> 160 ;
161 [label="gini = 0.0\nsamples = 10\nvalue = [0, 0, 10, 0, 0, 0]"] ;
159 -> 161 ;
162 [label="col <= 1.5\ngini = 0.109\nsamples = 52\nvalue = [49, 0, 0, 3, 0, 0]"] ;
158 -> 162 ;
163 [label="dest <= 2.5\ngini = 0.469\nsamples = 8\nvalue = [5, 0, 0, 3, 0, 0]"] ;
162 -> 163 ;
164 [label="gini = 0.0\nsamples = 3\nvalue = [0, 0, 0, 3, 0, 0]"] ;
163 -> 164 ;
165 [label="gini = 0.0\nsamples = 5\nvalue = [5, 0, 0, 0, 0, 0]"] ;
163 -> 165 ;
166 [label="gini = 0.0\nsamples = 44\nvalue = [44, 0, 0, 0, 0, 0]"] ;
162 -> 166 ;
167 [label="col <= 1.5\ngini = 0.727\nsamples = 472\nvalue = [84, 95, 117, 176, 0, 0]"] ;
1 -> 167 ;
168 [label="pass <= 0.5\ngini = 0.686\nsamples = 188\nvalue = [33, 32, 88, 35, 0, 0]"] ;
167 -> 168 ;
169 [label="dest <= 2.5\ngini = 0.255\nsamples = 20\nvalue = [0, 17, 3, 0, 0, 0]"] ;
168 -> 169 ;
170 [label="gini = 0.0\nsamples = 15\nvalue = [0, 15, 0, 0, 0, 0]"] ;
169 -> 170 ;
171 [label="col <= 0.5\ngini = 0.48\nsamples = 5\nvalue = [0, 2, 3, 0, 0, 0]"] ;
169 -> 171 ;
172 [label="gini = 0.0\nsamples = 3\nvalue = [0, 0, 3, 0, 0, 0]"] ;
171 -> 172 ;
173 [label="gini = 0.0\nsamples = 2\nvalue = [0, 2, 0, 0, 0, 0]"] ;
171 -> 173 ;
174 [label="col <= 0.5\ngini = 0.654\nsamples = 168\nvalue = [33, 15, 85, 35, 0, 0]"] ;
168 -> 174 ;
175 [label="pass <= 1.5\ngini = 0.577\nsamples = 77\nvalue = [33, 7, 37, 0, 0, 0]"] ;
174 -> 175 ;
176 [label="gini = 0.0\nsamples = 12\nvalue = [0, 0, 12, 0, 0, 0]"] ;
175 -> 176 ;
177 [label="pass <= 2.5\ngini = 0.583\nsamples = 65\nvalue = [33, 7, 25, 0, 0, 0]"] ;
175 -> 177 ;
178 [label="gini = 0.0\nsamples = 19\nvalue = [19, 0, 0, 0, 0, 0]"] ;
177 -> 178 ;
179 [label="dest <= 0.5\ngini = 0.589\nsamples = 46\nvalue = [14, 7, 25, 0, 0, 0]"] ;
177 -> 179 ;
180 [label="pass <= 3.5\ngini = 0.42\nsamples = 10\nvalue = [0, 7, 3, 0, 0, 0]"] ;
179 -> 180 ;
181 [label="gini = 0.0\nsamples = 3\nvalue = [0, 0, 3, 0, 0, 0]"] ;
180 -> 181 ;
182 [label="gini = 0.0\nsamples = 7\nvalue = [0, 7, 0, 0, 0, 0]"] ;
180 -> 182 ;
183 [label="dest <= 1.5\ngini = 0.475\nsamples = 36\nvalue = [14, 0, 22, 0, 0, 0]"] ;
179 -> 183 ;
184 [label="gini = 0.0\nsamples = 9\nvalue = [0, 0, 9, 0, 0, 0]"] ;
183 -> 184 ;
185 [label="dest <= 2.5\ngini = 0.499\nsamples = 27\nvalue = [14, 0, 13, 0, 0, 0]"] ;
183 -> 185 ;
186 [label="pass <= 3.5\ngini = 0.388\nsamples = 19\nvalue = [14, 0, 5, 0, 0, 0]"] ;
185 -> 186 ;
187 [label="gini = 0.0\nsamples = 5\nvalue = [0, 0, 5, 0, 0, 0]"] ;
186 -> 187 ;
188 [label="gini = 0.0\nsamples = 14\nvalue = [14, 0, 0, 0, 0, 0]"] ;
186 -> 188 ;
189 [label="gini = 0.0\nsamples = 8\nvalue = [0, 0, 8, 0, 0, 0]"] ;
185 -> 189 ;
190 [label="pass <= 1.5\ngini = 0.566\nsamples = 91\nvalue = [0, 8, 48, 35, 0, 0]"] ;
174 -> 190 ;
191 [label="gini = 0.0\nsamples = 21\nvalue = [0, 0, 21, 0, 0, 0]"] ;
190 -> 191 ;
192 [label="pass <= 2.5\ngini = 0.588\nsamples = 70\nvalue = [0, 8, 27, 35, 0, 0]"] ;
190 -> 192 ;
193 [label="gini = 0.0\nsamples = 26\nvalue = [0, 0, 0, 26, 0, 0]"] ;
192 -> 193 ;
194 [label="pass <= 3.5\ngini = 0.549\nsamples = 44\nvalue = [0, 8, 27, 9, 0, 0]"] ;
192 -> 194 ;
195 [label="gini = 0.0\nsamples = 19\nvalue = [0, 0, 19, 0, 0, 0]"] ;
194 -> 195 ;
196 [label="dest <= 0.5\ngini = 0.666\nsamples = 25\nvalue = [0, 8, 8, 9, 0, 0]"] ;
194 -> 196 ;
197 [label="gini = 0.0\nsamples = 8\nvalue = [0, 8, 0, 0, 0, 0]"] ;
196 -> 197 ;
198 [label="dest <= 2.5\ngini = 0.498\nsamples = 17\nvalue = [0, 0, 8, 9, 0, 0]"] ;
196 -> 198 ;
199 [label="dest <= 1.5\ngini = 0.375\nsamples = 12\nvalue = [0, 0, 3, 9, 0, 0]"] ;
198 -> 199 ;
200 [label="gini = 0.0\nsamples = 3\nvalue = [0, 0, 3, 0, 0, 0]"] ;
199 -> 200 ;
201 [label="gini = 0.0\nsamples = 9\nvalue = [0, 0, 0, 9, 0, 0]"] ;
199 -> 201 ;
202 [label="gini = 0.0\nsamples = 5\nvalue = [0, 0, 5, 0, 0, 0]"] ;
198 -> 202 ;
203 [label="pass <= 0.5\ngini = 0.662\nsamples = 284\nvalue = [51, 63, 29, 141, 0, 0]"] ;
167 -> 203 ;
204 [label="col <= 3.5\ngini = 0.1\nsamples = 38\nvalue = [2, 0, 0, 36, 0, 0]"] ;
203 -> 204 ;
205 [label="gini = 0.0\nsamples = 26\nvalue = [0, 0, 0, 26, 0, 0]"] ;
204 -> 205 ;
206 [label="dest <= 1.5\ngini = 0.278\nsamples = 12\nvalue = [2, 0, 0, 10, 0, 0]"] ;
204 -> 206 ;
207 [label="gini = 0.0\nsamples = 6\nvalue = [0, 0, 0, 6, 0, 0]"] ;
206 -> 207 ;
208 [label="dest <= 2.5\ngini = 0.444\nsamples = 6\nvalue = [2, 0, 0, 4, 0, 0]"] ;
206 -> 208 ;
209 [label="gini = 0.0\nsamples = 2\nvalue = [2, 0, 0, 0, 0, 0]"] ;
208 -> 209 ;
210 [label="gini = 0.0\nsamples = 4\nvalue = [0, 0, 0, 4, 0, 0]"] ;
208 -> 210 ;
211 [label="pass <= 1.5\ngini = 0.699\nsamples = 246\nvalue = [49, 63, 29, 105, 0, 0]"] ;
203 -> 211 ;
212 [label="dest <= 1.0\ngini = 0.219\nsamples = 40\nvalue = [0, 35, 5, 0, 0, 0]"] ;
211 -> 212 ;
213 [label="col <= 2.5\ngini = 0.391\nsamples = 15\nvalue = [0, 11, 4, 0, 0, 0]"] ;
212 -> 213 ;
214 [label="gini = 0.0\nsamples = 4\nvalue = [0, 0, 4, 0, 0, 0]"] ;
213 -> 214 ;
215 [label="gini = 0.0\nsamples = 11\nvalue = [0, 11, 0, 0, 0, 0]"] ;
213 -> 215 ;
216 [label="col <= 2.5\ngini = 0.077\nsamples = 25\nvalue = [0, 24, 1, 0, 0, 0]"] ;
212 -> 216 ;
217 [label="gini = 0.0\nsamples = 13\nvalue = [0, 13, 0, 0, 0, 0]"] ;
216 -> 217 ;
218 [label="col <= 3.5\ngini = 0.153\nsamples = 12\nvalue = [0, 11, 1, 0, 0, 0]"] ;
216 -> 218 ;
219 [label="dest <= 2.5\ngini = 0.5\nsamples = 2\nvalue = [0, 1, 1, 0, 0, 0]"] ;
218 -> 219 ;
220 [label="gini = 0.0\nsamples = 1\nvalue = [0, 0, 1, 0, 0, 0]"] ;
219 -> 220 ;
221 [label="gini = 0.0\nsamples = 1\nvalue = [0, 1, 0, 0, 0, 0]"] ;
219 -> 221 ;
222 [label="gini = 0.0\nsamples = 10\nvalue = [0, 10, 0, 0, 0, 0]"] ;
218 -> 222 ;
223 [label="pass <= 2.5\ngini = 0.652\nsamples = 206\nvalue = [49, 28, 24, 105, 0, 0]"] ;
211 -> 223 ;
224 [label="col <= 2.5\ngini = 0.282\nsamples = 50\nvalue = [0, 4, 4, 42, 0, 0]"] ;
223 -> 224 ;
225 [label="gini = 0.0\nsamples = 22\nvalue = [0, 0, 0, 22, 0, 0]"] ;
224 -> 225 ;
226 [label="dest <= 0.5\ngini = 0.449\nsamples = 28\nvalue = [0, 4, 4, 20, 0, 0]"] ;
224 -> 226 ;
227 [label="col <= 3.5\ngini = 0.5\nsamples = 8\nvalue = [0, 4, 0, 4, 0, 0]"] ;
226 -> 227 ;
228 [label="gini = 0.0\nsamples = 4\nvalue = [0, 4, 0, 0, 0, 0]"] ;
227 -> 228 ;
229 [label="gini = 0.0\nsamples = 4\nvalue = [0, 0, 0, 4, 0, 0]"] ;
227 -> 229 ;
230 [label="col <= 3.5\ngini = 0.32\nsamples = 20\nvalue = [0, 0, 4, 16, 0, 0]"] ;
226 -> 230 ;
231 [label="gini = 0.0\nsamples = 11\nvalue = [0, 0, 0, 11, 0, 0]"] ;
230 -> 231 ;
232 [label="dest <= 2.0\ngini = 0.494\nsamples = 9\nvalue = [0, 0, 4, 5, 0, 0]"] ;
230 -> 232 ;
233 [label="gini = 0.0\nsamples = 4\nvalue = [0, 0, 4, 0, 0, 0]"] ;
232 -> 233 ;
234 [label="gini = 0.0\nsamples = 5\nvalue = [0, 0, 0, 5, 0, 0]"] ;
232 -> 234 ;
235 [label="pass <= 3.5\ngini = 0.698\nsamples = 156\nvalue = [49, 24, 20, 63, 0, 0]"] ;
223 -> 235 ;
236 [label="col <= 2.5\ngini = 0.565\nsamples = 63\nvalue = [37, 0, 16, 10, 0, 0]"] ;
235 -> 236 ;
237 [label="gini = 0.0\nsamples = 16\nvalue = [0, 0, 16, 0, 0, 0]"] ;
236 -> 237 ;
238 [label="dest <= 1.5\ngini = 0.335\nsamples = 47\nvalue = [37, 0, 0, 10, 0, 0]"] ;
236 -> 238 ;
239 [label="gini = 0.0\nsamples = 29\nvalue = [29, 0, 0, 0, 0, 0]"] ;
238 -> 239 ;
240 [label="col <= 3.5\ngini = 0.494\nsamples = 18\nvalue = [8, 0, 0, 10, 0, 0]"] ;
238 -> 240 ;
241 [label="gini = 0.0\nsamples = 8\nvalue = [8, 0, 0, 0, 0, 0]"] ;
240 -> 241 ;
242 [label="gini = 0.0\nsamples = 10\nvalue = [0, 0, 0, 10, 0, 0]"] ;
240 -> 242 ;
243 [label="dest <= 2.5\ngini = 0.59\nsamples = 93\nvalue = [12, 24, 4, 53, 0, 0]"] ;
235 -> 243 ;
244 [label="dest <= 0.5\ngini = 0.429\nsamples = 77\nvalue = [0, 24, 0, 53, 0, 0]"] ;
243 -> 244 ;
245 [label="gini = 0.0\nsamples = 28\nvalue = [0, 0, 0, 28, 0, 0]"] ;
244 -> 245 ;
246 [label="dest <= 1.5\ngini = 0.5\nsamples = 49\nvalue = [0, 24, 0, 25, 0, 0]"] ;
244 -> 246 ;
247 [label="gini = 0.0\nsamples = 24\nvalue = [0, 24, 0, 0, 0, 0]"] ;
246 -> 247 ;
248 [label="gini = 0.0\nsamples = 25\nvalue = [0, 0, 0, 25, 0, 0]"] ;
246 -> 248 ;
249 [label="col <= 2.5\ngini = 0.375\nsamples = 16\nvalue = [12, 0, 4, 0, 0, 0]"] ;
243 -> 249 ;
250 [label="gini = 0.0\nsamples = 4\nvalue = [0, 0, 4, 0, 0, 0]"] ;
249 -> 250 ;
251 [label="gini = 0.0\nsamples = 12\nvalue = [12, 0, 0, 0, 0, 0]"] ;
249 -> 251 ;
252 [label="row <= 3.5\ngini = 0.634\nsamples = 777\nvalue = [167, 428, 40, 75, 52, 15]"] ;
0 -> 252 [labeldistance=2.5, labelangle=-45, headlabel="False"] ;
253 [label="pass <= 1.5\ngini = 0.518\nsamples = 379\nvalue = [81, 247, 12, 39, 0, 0]"] ;
252 -> 253 ;
254 [label="col <= 3.5\ngini = 0.147\nsamples = 115\nvalue = [0, 106, 3, 6, 0, 0]"] ;
253 -> 254 ;
255 [label="dest <= 1.5\ngini = 0.116\nsamples = 99\nvalue = [0, 93, 3, 3, 0, 0]"] ;
254 -> 255 ;
256 [label="gini = 0.0\nsamples = 45\nvalue = [0, 45, 0, 0, 0, 0]"] ;
255 -> 256 ;
257 [label="col <= 2.5\ngini = 0.204\nsamples = 54\nvalue = [0, 48, 3, 3, 0, 0]"] ;
255 -> 257 ;
258 [label="col <= 1.5\ngini = 0.285\nsamples = 37\nvalue = [0, 31, 3, 3, 0, 0]"] ;
257 -> 258 ;
259 [label="col <= 0.5\ngini = 0.198\nsamples = 27\nvalue = [0, 24, 3, 0, 0, 0]"] ;
258 -> 259 ;
260 [label="gini = 0.0\nsamples = 15\nvalue = [0, 15, 0, 0, 0, 0]"] ;
259 -> 260 ;
261 [label="pass <= 0.5\ngini = 0.375\nsamples = 12\nvalue = [0, 9, 3, 0, 0, 0]"] ;
259 -> 261 ;
262 [label="gini = 0.0\nsamples = 6\nvalue = [0, 6, 0, 0, 0, 0]"] ;
261 -> 262 ;
263 [label="dest <= 2.5\ngini = 0.5\nsamples = 6\nvalue = [0, 3, 3, 0, 0, 0]"] ;
261 -> 263 ;
264 [label="gini = 0.0\nsamples = 3\nvalue = [0, 3, 0, 0, 0, 0]"] ;
263 -> 264 ;
265 [label="gini = 0.0\nsamples = 3\nvalue = [0, 0, 3, 0, 0, 0]"] ;
263 -> 265 ;
266 [label="pass <= 0.5\ngini = 0.42\nsamples = 10\nvalue = [0, 7, 0, 3, 0, 0]"] ;
258 -> 266 ;
267 [label="dest <= 2.5\ngini = 0.375\nsamples = 4\nvalue = [0, 1, 0, 3, 0, 0]"] ;
266 -> 267 ;
268 [label="gini = 0.0\nsamples = 3\nvalue = [0, 0, 0, 3, 0, 0]"] ;
267 -> 268 ;
269 [label="gini = 0.0\nsamples = 1\nvalue = [0, 1, 0, 0, 0, 0]"] ;
267 -> 269 ;
270 [label="gini = 0.0\nsamples = 6\nvalue = [0, 6, 0, 0, 0, 0]"] ;
266 -> 270 ;
271 [label="gini = 0.0\nsamples = 17\nvalue = [0, 17, 0, 0, 0, 0]"] ;
257 -> 271 ;
272 [label="pass <= 0.5\ngini = 0.305\nsamples = 16\nvalue = [0, 13, 0, 3, 0, 0]"] ;
254 -> 272 ;
273 [label="dest <= 2.5\ngini = 0.5\nsamples = 6\nvalue = [0, 3, 0, 3, 0, 0]"] ;
272 -> 273 ;
274 [label="gini = 0.0\nsamples = 3\nvalue = [0, 0, 0, 3, 0, 0]"] ;
273 -> 274 ;
275 [label="gini = 0.0\nsamples = 3\nvalue = [0, 3, 0, 0, 0, 0]"] ;
273 -> 275 ;
276 [label="gini = 0.0\nsamples = 10\nvalue = [0, 10, 0, 0, 0, 0]"] ;
272 -> 276 ;
277 [label="col <= 0.5\ngini = 0.604\nsamples = 264\nvalue = [81, 141, 9, 33, 0, 0]"] ;
253 -> 277 ;
278 [label="pass <= 2.5\ngini = 0.477\nsamples = 56\nvalue = [34, 22, 0, 0, 0, 0]"] ;
277 -> 278 ;
279 [label="gini = 0.0\nsamples = 15\nvalue = [15, 0, 0, 0, 0, 0]"] ;
278 -> 279 ;
280 [label="pass <= 3.5\ngini = 0.497\nsamples = 41\nvalue = [19, 22, 0, 0, 0, 0]"] ;
278 -> 280 ;
281 [label="dest <= 0.5\ngini = 0.375\nsamples = 16\nvalue = [4, 12, 0, 0, 0, 0]"] ;
280 -> 281 ;
282 [label="gini = 0.0\nsamples = 4\nvalue = [4, 0, 0, 0, 0, 0]"] ;
281 -> 282 ;
283 [label="gini = 0.0\nsamples = 12\nvalue = [0, 12, 0, 0, 0, 0]"] ;
281 -> 283 ;
284 [label="dest <= 1.5\ngini = 0.48\nsamples = 25\nvalue = [15, 10, 0, 0, 0, 0]"] ;
280 -> 284 ;
285 [label="gini = 0.0\nsamples = 6\nvalue = [0, 6, 0, 0, 0, 0]"] ;
284 -> 285 ;
286 [label="dest <= 2.5\ngini = 0.332\nsamples = 19\nvalue = [15, 4, 0, 0, 0, 0]"] ;
284 -> 286 ;
287 [label="gini = 0.0\nsamples = 15\nvalue = [15, 0, 0, 0, 0, 0]"] ;
286 -> 287 ;
288 [label="gini = 0.0\nsamples = 4\nvalue = [0, 4, 0, 0, 0, 0]"] ;
286 -> 288 ;
289 [label="col <= 2.5\ngini = 0.595\nsamples = 208\nvalue = [47, 119, 9, 33, 0, 0]"] ;
277 -> 289 ;
290 [label="col <= 1.5\ngini = 0.413\nsamples = 97\nvalue = [0, 72, 9, 16, 0, 0]"] ;
289 -> 290 ;
291 [label="dest <= 1.5\ngini = 0.259\nsamples = 59\nvalue = [0, 50, 9, 0, 0, 0]"] ;
290 -> 291 ;
292 [label="gini = 0.0\nsamples = 31\nvalue = [0, 31, 0, 0, 0, 0]"] ;
291 -> 292 ;
293 [label="pass <= 3.5\ngini = 0.436\nsamples = 28\nvalue = [0, 19, 9, 0, 0, 0]"] ;
291 -> 293 ;
294 [label="pass <= 2.5\ngini = 0.498\nsamples = 17\nvalue = [0, 8, 9, 0, 0, 0]"] ;
293 -> 294 ;
295 [label="gini = 0.0\nsamples = 8\nvalue = [0, 8, 0, 0, 0, 0]"] ;
294 -> 295 ;
296 [label="gini = 0.0\nsamples = 9\nvalue = [0, 0, 9, 0, 0, 0]"] ;
294 -> 296 ;
297 [label="gini = 0.0\nsamples = 11\nvalue = [0, 11, 0, 0, 0, 0]"] ;
293 -> 297 ;
298 [label="pass <= 2.5\ngini = 0.488\nsamples = 38\nvalue = [0, 22, 0, 16, 0, 0]"] ;
290 -> 298 ;
299 [label="dest <= 0.5\ngini = 0.165\nsamples = 11\nvalue = [0, 1, 0, 10, 0, 0]"] ;
298 -> 299 ;
300 [label="gini = 0.0\nsamples = 1\nvalue = [0, 1, 0, 0, 0, 0]"] ;
299 -> 300 ;
301 [label="gini = 0.0\nsamples = 10\nvalue = [0, 0, 0, 10, 0, 0]"] ;
299 -> 301 ;
302 [label="dest <= 0.5\ngini = 0.346\nsamples = 27\nvalue = [0, 21, 0, 6, 0, 0]"] ;
298 -> 302 ;
303 [label="gini = 0.0\nsamples = 6\nvalue = [0, 0, 0, 6, 0, 0]"] ;
302 -> 303 ;
304 [label="gini = 0.0\nsamples = 21\nvalue = [0, 21, 0, 0, 0, 0]"] ;
302 -> 304 ;
305 [label="pass <= 2.5\ngini = 0.618\nsamples = 111\nvalue = [47, 47, 0, 17, 0, 0]"] ;
289 -> 305 ;
306 [label="col <= 3.5\ngini = 0.453\nsamples = 26\nvalue = [0, 17, 0, 9, 0, 0]"] ;
305 -> 306 ;
307 [label="gini = 0.0\nsamples = 12\nvalue = [0, 12, 0, 0, 0, 0]"] ;
306 -> 307 ;
308 [label="dest <= 0.5\ngini = 0.459\nsamples = 14\nvalue = [0, 5, 0, 9, 0, 0]"] ;
306 -> 308 ;
309 [label="gini = 0.0\nsamples = 5\nvalue = [0, 5, 0, 0, 0, 0]"] ;
308 -> 309 ;
310 [label="gini = 0.0\nsamples = 9\nvalue = [0, 0, 0, 9, 0, 0]"] ;
308 -> 310 ;
311 [label="pass <= 3.5\ngini = 0.561\nsamples = 85\nvalue = [47, 30, 0, 8, 0, 0]"] ;
305 -> 311 ;
312 [label="col <= 3.5\ngini = 0.245\nsamples = 35\nvalue = [30, 0, 0, 5, 0, 0]"] ;
311 -> 312 ;
313 [label="gini = 0.0\nsamples = 24\nvalue = [24, 0, 0, 0, 0, 0]"] ;
312 -> 313 ;
314 [label="dest <= 1.5\ngini = 0.496\nsamples = 11\nvalue = [6, 0, 0, 5, 0, 0]"] ;
312 -> 314 ;
315 [label="dest <= 0.5\ngini = 0.375\nsamples = 8\nvalue = [6, 0, 0, 2, 0, 0]"] ;
314 -> 315 ;
316 [label="gini = 0.0\nsamples = 2\nvalue = [0, 0, 0, 2, 0, 0]"] ;
315 -> 316 ;
317 [label="gini = 0.0\nsamples = 6\nvalue = [6, 0, 0, 0, 0, 0]"] ;
315 -> 317 ;
318 [label="gini = 0.0\nsamples = 3\nvalue = [0, 0, 0, 3, 0, 0]"] ;
314 -> 318 ;
319 [label="dest <= 2.5\ngini = 0.521\nsamples = 50\nvalue = [17, 30, 0, 3, 0, 0]"] ;
311 -> 319 ;
320 [label="col <= 3.5\ngini = 0.165\nsamples = 33\nvalue = [0, 30, 0, 3, 0, 0]"] ;
319 -> 320 ;
321 [label="gini = 0.0\nsamples = 20\nvalue = [0, 20, 0, 0, 0, 0]"] ;
320 -> 321 ;
322 [label="dest <= 1.5\ngini = 0.355\nsamples = 13\nvalue = [0, 10, 0, 3, 0, 0]"] ;
320 -> 322 ;
323 [label="gini = 0.0\nsamples = 10\nvalue = [0, 10, 0, 0, 0, 0]"] ;
322 -> 323 ;
324 [label="gini = 0.0\nsamples = 3\nvalue = [0, 0, 0, 3, 0, 0]"] ;
322 -> 324 ;
325 [label="gini = 0.0\nsamples = 17\nvalue = [17, 0, 0, 0, 0, 0]"] ;
319 -> 325 ;
326 [label="pass <= 3.5\ngini = 0.715\nsamples = 398\nvalue = [86, 181, 28, 36, 52, 15]"] ;
252 -> 326 ;
327 [label="pass <= 1.5\ngini = 0.73\nsamples = 302\nvalue = [85, 116, 28, 21, 52, 0]"] ;
326 -> 327 ;
328 [label="pass <= 0.5\ngini = 0.623\nsamples = 141\nvalue = [54, 66, 12, 9, 0, 0]"] ;
327 -> 328 ;
329 [label="dest <= 2.5\ngini = 0.685\nsamples = 64\nvalue = [29, 17, 9, 9, 0, 0]"] ;
328 -> 329 ;
330 [label="col <= 1.5\ngini = 0.628\nsamples = 47\nvalue = [22, 16, 0, 9, 0, 0]"] ;
329 -> 330 ;
331 [label="col <= 0.5\ngini = 0.615\nsamples = 20\nvalue = [8, 3, 0, 9, 0, 0]"] ;
330 -> 331 ;
332 [label="dest <= 1.5\ngini = 0.444\nsamples = 12\nvalue = [8, 0, 0, 4, 0, 0]"] ;
331 -> 332 ;
333 [label="gini = 0.0\nsamples = 8\nvalue = [8, 0, 0, 0, 0, 0]"] ;
332 -> 333 ;
334 [label="gini = 0.0\nsamples = 4\nvalue = [0, 0, 0, 4, 0, 0]"] ;
332 -> 334 ;
335 [label="dest <= 1.5\ngini = 0.469\nsamples = 8\nvalue = [0, 3, 0, 5, 0, 0]"] ;
331 -> 335 ;
336 [label="gini = 0.0\nsamples = 5\nvalue = [0, 0, 0, 5, 0, 0]"] ;
335 -> 336 ;
337 [label="gini = 0.0\nsamples = 3\nvalue = [0, 3, 0, 0, 0, 0]"] ;
335 -> 337 ;
338 [label="col <= 2.5\ngini = 0.499\nsamples = 27\nvalue = [14, 13, 0, 0, 0, 0]"] ;
330 -> 338 ;
339 [label="dest <= 1.5\ngini = 0.32\nsamples = 5\nvalue = [4, 1, 0, 0, 0, 0]"] ;
338 -> 339 ;
340 [label="gini = 0.0\nsamples = 4\nvalue = [4, 0, 0, 0, 0, 0]"] ;
339 -> 340 ;
341 [label="gini = 0.0\nsamples = 1\nvalue = [0, 1, 0, 0, 0, 0]"] ;
339 -> 341 ;
342 [label="col <= 3.5\ngini = 0.496\nsamples = 22\nvalue = [10, 12, 0, 0, 0, 0]"] ;
338 -> 342 ;
343 [label="dest <= 1.5\ngini = 0.459\nsamples = 14\nvalue = [5, 9, 0, 0, 0, 0]"] ;
342 -> 343 ;
344 [label="gini = 0.0\nsamples = 9\nvalue = [0, 9, 0, 0, 0, 0]"] ;
343 -> 344 ;
345 [label="gini = 0.0\nsamples = 5\nvalue = [5, 0, 0, 0, 0, 0]"] ;
343 -> 345 ;
346 [label="dest <= 1.5\ngini = 0.469\nsamples = 8\nvalue = [5, 3, 0, 0, 0, 0]"] ;
342 -> 346 ;
347 [label="gini = 0.0\nsamples = 5\nvalue = [5, 0, 0, 0, 0, 0]"] ;
346 -> 347 ;
348 [label="gini = 0.0\nsamples = 3\nvalue = [0, 3, 0, 0, 0, 0]"] ;
346 -> 348 ;
349 [label="col <= 3.0\ngini = 0.547\nsamples = 17\nvalue = [7, 1, 9, 0, 0, 0]"] ;
329 -> 349 ;
350 [label="col <= 1.5\ngini = 0.219\nsamples = 8\nvalue = [7, 1, 0, 0, 0, 0]"] ;
349 -> 350 ;
351 [label="col <= 0.5\ngini = 0.444\nsamples = 3\nvalue = [2, 1, 0, 0, 0, 0]"] ;
350 -> 351 ;
352 [label="gini = 0.0\nsamples = 2\nvalue = [2, 0, 0, 0, 0, 0]"] ;
351 -> 352 ;
353 [label="gini = 0.0\nsamples = 1\nvalue = [0, 1, 0, 0, 0, 0]"] ;
351 -> 353 ;
354 [label="gini = 0.0\nsamples = 5\nvalue = [5, 0, 0, 0, 0, 0]"] ;
350 -> 354 ;
355 [label="gini = 0.0\nsamples = 9\nvalue = [0, 0, 9, 0, 0, 0]"] ;
349 -> 355 ;
356 [label="col <= 3.5\ngini = 0.488\nsamples = 77\nvalue = [25, 49, 3, 0, 0, 0]"] ;
328 -> 356 ;
357 [label="col <= 0.5\ngini = 0.532\nsamples = 63\nvalue = [25, 35, 3, 0, 0, 0]"] ;
356 -> 357 ;
358 [label="gini = 0.0\nsamples = 13\nvalue = [0, 13, 0, 0, 0, 0]"] ;
357 -> 358 ;
359 [label="col <= 1.5\ngini = 0.553\nsamples = 50\nvalue = [25, 22, 3, 0, 0, 0]"] ;
357 -> 359 ;
360 [label="dest <= 2.5\ngini = 0.539\nsamples = 16\nvalue = [10, 3, 3, 0, 0, 0]"] ;
359 -> 360 ;
361 [label="dest <= 1.0\ngini = 0.5\nsamples = 6\nvalue = [0, 3, 3, 0, 0, 0]"] ;
360 -> 361 ;
362 [label="gini = 0.0\nsamples = 3\nvalue = [0, 3, 0, 0, 0, 0]"] ;
361 -> 362 ;
363 [label="gini = 0.0\nsamples = 3\nvalue = [0, 0, 3, 0, 0, 0]"] ;
361 -> 363 ;
364 [label="gini = 0.0\nsamples = 10\nvalue = [10, 0, 0, 0, 0, 0]"] ;
360 -> 364 ;
365 [label="dest <= 2.5\ngini = 0.493\nsamples = 34\nvalue = [15, 19, 0, 0, 0, 0]"] ;
359 -> 365 ;
366 [label="dest <= 1.0\ngini = 0.48\nsamples = 25\nvalue = [15, 10, 0, 0, 0, 0]"] ;
365 -> 366 ;
367 [label="col <= 2.5\ngini = 0.486\nsamples = 12\nvalue = [5, 7, 0, 0, 0, 0]"] ;
366 -> 367 ;
368 [label="gini = 0.0\nsamples = 5\nvalue = [5, 0, 0, 0, 0, 0]"] ;
367 -> 368 ;
369 [label="gini = 0.0\nsamples = 7\nvalue = [0, 7, 0, 0, 0, 0]"] ;
367 -> 369 ;
370 [label="col <= 2.5\ngini = 0.355\nsamples = 13\nvalue = [10, 3, 0, 0, 0, 0]"] ;
366 -> 370 ;
371 [label="gini = 0.0\nsamples = 3\nvalue = [0, 3, 0, 0, 0, 0]"] ;
370 -> 371 ;
372 [label="gini = 0.0\nsamples = 10\nvalue = [10, 0, 0, 0, 0, 0]"] ;
370 -> 372 ;
373 [label="gini = 0.0\nsamples = 9\nvalue = [0, 9, 0, 0, 0, 0]"] ;
365 -> 373 ;
374 [label="gini = 0.0\nsamples = 14\nvalue = [0, 14, 0, 0, 0, 0]"] ;
356 -> 374 ;
375 [label="col <= 2.5\ngini = 0.747\nsamples = 161\nvalue = [31, 50, 16, 12, 52, 0]"] ;
327 -> 375 ;
376 [label="col <= 0.5\ngini = 0.676\nsamples = 93\nvalue = [13, 44, 13, 0, 23, 0]"] ;
375 -> 376 ;
377 [label="pass <= 2.5\ngini = 0.495\nsamples = 35\nvalue = [9, 3, 0, 0, 23, 0]"] ;
376 -> 377 ;
378 [label="gini = 0.0\nsamples = 23\nvalue = [0, 0, 0, 0, 23, 0]"] ;
377 -> 378 ;
379 [label="dest <= 1.5\ngini = 0.375\nsamples = 12\nvalue = [9, 3, 0, 0, 0, 0]"] ;
377 -> 379 ;
380 [label="dest <= 0.5\ngini = 0.5\nsamples = 6\nvalue = [3, 3, 0, 0, 0, 0]"] ;
379 -> 380 ;
381 [label="gini = 0.0\nsamples = 3\nvalue = [3, 0, 0, 0, 0, 0]"] ;
380 -> 381 ;
382 [label="gini = 0.0\nsamples = 3\nvalue = [0, 3, 0, 0, 0, 0]"] ;
380 -> 382 ;
383 [label="gini = 0.0\nsamples = 6\nvalue = [6, 0, 0, 0, 0, 0]"] ;
379 -> 383 ;
384 [label="col <= 1.5\ngini = 0.445\nsamples = 58\nvalue = [4, 41, 13, 0, 0, 0]"] ;
376 -> 384 ;
385 [label="pass <= 2.5\ngini = 0.482\nsamples = 32\nvalue = [0, 19, 13, 0, 0, 0]"] ;
384 -> 385 ;
386 [label="gini = 0.0\nsamples = 14\nvalue = [0, 14, 0, 0, 0, 0]"] ;
385 -> 386 ;
387 [label="dest <= 1.5\ngini = 0.401\nsamples = 18\nvalue = [0, 5, 13, 0, 0, 0]"] ;
385 -> 387 ;
388 [label="gini = 0.0\nsamples = 13\nvalue = [0, 0, 13, 0, 0, 0]"] ;
387 -> 388 ;
389 [label="gini = 0.0\nsamples = 5\nvalue = [0, 5, 0, 0, 0, 0]"] ;
387 -> 389 ;
390 [label="pass <= 2.5\ngini = 0.26\nsamples = 26\nvalue = [4, 22, 0, 0, 0, 0]"] ;
384 -> 390 ;
391 [label="dest <= 0.5\ngini = 0.494\nsamples = 9\nvalue = [4, 5, 0, 0, 0, 0]"] ;
390 -> 391 ;
392 [label="gini = 0.0\nsamples = 3\nvalue = [0, 3, 0, 0, 0, 0]"] ;
391 -> 392 ;
393 [label="dest <= 2.0\ngini = 0.444\nsamples = 6\nvalue = [4, 2, 0, 0, 0, 0]"] ;
391 -> 393 ;
394 [label="gini = 0.0\nsamples = 4\nvalue = [4, 0, 0, 0, 0, 0]"] ;
393 -> 394 ;
395 [label="gini = 0.0\nsamples = 2\nvalue = [0, 2, 0, 0, 0, 0]"] ;
393 -> 395 ;
396 [label="gini = 0.0\nsamples = 17\nvalue = [0, 17, 0, 0, 0, 0]"] ;
390 -> 396 ;
397 [label="pass <= 2.5\ngini = 0.707\nsamples = 68\nvalue = [18, 6, 3, 12, 29, 0]"] ;
375 -> 397 ;
398 [label="dest <= 0.5\ngini = 0.494\nsamples = 27\nvalue = [18, 6, 3, 0, 0, 0]"] ;
397 -> 398 ;
399 [label="col <= 3.5\ngini = 0.5\nsamples = 6\nvalue = [0, 3, 3, 0, 0, 0]"] ;
398 -> 399 ;
400 [label="gini = 0.0\nsamples = 3\nvalue = [0, 3, 0, 0, 0, 0]"] ;
399 -> 400 ;
401 [label="gini = 0.0\nsamples = 3\nvalue = [0, 0, 3, 0, 0, 0]"] ;
399 -> 401 ;
402 [label="col <= 3.5\ngini = 0.245\nsamples = 21\nvalue = [18, 3, 0, 0, 0, 0]"] ;
398 -> 402 ;
403 [label="gini = 0.0\nsamples = 13\nvalue = [13, 0, 0, 0, 0, 0]"] ;
402 -> 403 ;
404 [label="dest <= 2.0\ngini = 0.469\nsamples = 8\nvalue = [5, 3, 0, 0, 0, 0]"] ;
402 -> 404 ;
405 [label="gini = 0.0\nsamples = 5\nvalue = [5, 0, 0, 0, 0, 0]"] ;
404 -> 405 ;
406 [label="gini = 0.0\nsamples = 3\nvalue = [0, 3, 0, 0, 0, 0]"] ;
404 -> 406 ;
407 [label="col <= 3.5\ngini = 0.414\nsamples = 41\nvalue = [0, 0, 0, 12, 29, 0]"] ;
397 -> 407 ;
408 [label="gini = 0.0\nsamples = 29\nvalue = [0, 0, 0, 0, 29, 0]"] ;
407 -> 408 ;
409 [label="gini = 0.0\nsamples = 12\nvalue = [0, 0, 0, 12, 0, 0]"] ;
407 -> 409 ;
410 [label="dest <= 1.5\ngini = 0.493\nsamples = 96\nvalue = [1, 65, 0, 15, 0, 15]"] ;
326 -> 410 ;
411 [label="col <= 1.5\ngini = 0.187\nsamples = 49\nvalue = [1, 44, 0, 4, 0, 0]"] ;
410 -> 411 ;
412 [label="col <= 0.5\ngini = 0.298\nsamples = 22\nvalue = [0, 18, 0, 4, 0, 0]"] ;
411 -> 412 ;
413 [label="gini = 0.0\nsamples = 15\nvalue = [0, 15, 0, 0, 0, 0]"] ;
412 -> 413 ;
414 [label="dest <= 0.5\ngini = 0.49\nsamples = 7\nvalue = [0, 3, 0, 4, 0, 0]"] ;
412 -> 414 ;
415 [label="gini = 0.0\nsamples = 3\nvalue = [0, 3, 0, 0, 0, 0]"] ;
414 -> 415 ;
416 [label="gini = 0.0\nsamples = 4\nvalue = [0, 0, 0, 4, 0, 0]"] ;
414 -> 416 ;
417 [label="col <= 2.5\ngini = 0.071\nsamples = 27\nvalue = [1, 26, 0, 0, 0, 0]"] ;
411 -> 417 ;
418 [label="dest <= 0.5\ngini = 0.245\nsamples = 7\nvalue = [1, 6, 0, 0, 0, 0]"] ;
417 -> 418 ;
419 [label="gini = 0.0\nsamples = 1\nvalue = [1, 0, 0, 0, 0, 0]"] ;
418 -> 419 ;
420 [label="gini = 0.0\nsamples = 6\nvalue = [0, 6, 0, 0, 0, 0]"] ;
418 -> 420 ;
421 [label="gini = 0.0\nsamples = 20\nvalue = [0, 20, 0, 0, 0, 0]"] ;
417 -> 421 ;
422 [label="col <= 3.5\ngini = 0.644\nsamples = 47\nvalue = [0, 21, 0, 11, 0, 15]"] ;
410 -> 422 ;
423 [label="col <= 2.5\ngini = 0.574\nsamples = 40\nvalue = [0, 21, 0, 4, 0, 15]"] ;
422 -> 423 ;
424 [label="col <= 1.5\ngini = 0.473\nsamples = 26\nvalue = [0, 18, 0, 4, 0, 4]"] ;
423 -> 424 ;
425 [label="dest <= 2.5\ngini = 0.332\nsamples = 19\nvalue = [0, 15, 0, 0, 0, 4]"] ;
424 -> 425 ;
426 [label="col <= 0.5\ngini = 0.49\nsamples = 7\nvalue = [0, 3, 0, 0, 0, 4]"] ;
425 -> 426 ;
427 [label="gini = 0.0\nsamples = 4\nvalue = [0, 0, 0, 0, 0, 4]"] ;
426 -> 427 ;
428 [label="gini = 0.0\nsamples = 3\nvalue = [0, 3, 0, 0, 0, 0]"] ;
426 -> 428 ;
429 [label="gini = 0.0\nsamples = 12\nvalue = [0, 12, 0, 0, 0, 0]"] ;
425 -> 429 ;
430 [label="dest <= 2.5\ngini = 0.49\nsamples = 7\nvalue = [0, 3, 0, 4, 0, 0]"] ;
424 -> 430 ;
431 [label="gini = 0.0\nsamples = 3\nvalue = [0, 3, 0, 0, 0, 0]"] ;
430 -> 431 ;
432 [label="gini = 0.0\nsamples = 4\nvalue = [0, 0, 0, 4, 0, 0]"] ;
430 -> 432 ;
433 [label="dest <= 2.5\ngini = 0.337\nsamples = 14\nvalue = [0, 3, 0, 0, 0, 11]"] ;
423 -> 433 ;
434 [label="gini = 0.0\nsamples = 3\nvalue = [0, 3, 0, 0, 0, 0]"] ;
433 -> 434 ;
435 [label="gini = 0.0\nsamples = 11\nvalue = [0, 0, 0, 0, 0, 11]"] ;
433 -> 435 ;
436 [label="gini = 0.0\nsamples = 7\nvalue = [0, 0, 0, 7, 0, 0]"] ;
422 -> 436 ;
}